{"model": "{\"class_name\": \"Sequential\", \"config\": {\"name\": \"sequential_12\", \"layers\": [{\"module\": \"keras.layers\", \"class_name\": \"InputLayer\", \"config\": {\"batch_input_shape\": [null, 1, 1], \"dtype\": \"float32\", \"sparse\": false, \"ragged\": false, \"name\": \"gru_11_input\"}, \"registered_name\": null}, {\"module\": \"keras.layers\", \"class_name\": \"GRU\", \"config\": {\"name\": \"gru_11\", \"trainable\": true, \"dtype\": \"float32\", \"batch_input_shape\": [null, 1, 1], \"return_sequences\": false, \"return_state\": false, \"go_backwards\": false, \"stateful\": false, \"unroll\": false, \"time_major\": false, \"units\": 128, \"activation\": \"tanh\", \"recurrent_activation\": \"sigmoid\", \"use_bias\": true, \"kernel_initializer\": {\"module\": \"keras.initializers\", \"class_name\": \"GlorotUniform\", \"config\": {\"seed\": null}, \"registered_name\": null}, \"recurrent_initializer\": {\"module\": \"keras.initializers\", \"class_name\": \"Orthogonal\", \"config\": {\"gain\": 1.0, \"seed\": null}, \"registered_name\": null}, \"bias_initializer\": {\"module\": \"keras.initializers\", \"class_name\": \"Zeros\", \"config\": {}, \"registered_name\": null}, \"kernel_regularizer\": null, \"recurrent_regularizer\": null, \"bias_regularizer\": null, \"activity_regularizer\": null, \"kernel_constraint\": null, \"recurrent_constraint\": null, \"bias_constraint\": null, \"dropout\": 0.0, \"recurrent_dropout\": 0.0, \"implementation\": 2, \"reset_after\": true}, \"registered_name\": null, \"build_config\": {\"input_shape\": [null, 1, 1]}}, {\"module\": \"keras.layers\", \"class_name\": \"Dense\", \"config\": {\"name\": \"dense_12\", \"trainable\": true, \"dtype\": \"float32\", \"units\": 1, \"activation\": \"linear\", \"use_bias\": true, \"kernel_initializer\": {\"module\": \"keras.initializers\", \"class_name\": \"GlorotUniform\", \"config\": {\"seed\": null}, \"registered_name\": null}, \"bias_initializer\": {\"module\": \"keras.initializers\", \"class_name\": \"Zeros\", \"config\": {}, \"registered_name\": null}, \"kernel_regularizer\": null, \"bias_regularizer\": null, \"activity_regularizer\": null, \"kernel_constraint\": null, \"bias_constraint\": null}, \"registered_name\": null, \"build_config\": {\"input_shape\": [null, 128]}}]}, \"keras_version\": \"2.13.1\", \"backend\": \"tensorflow\"}", "weights": [[[-0.050321243703365326, -0.07389719039201736, 0.14905911684036255, -0.08282811939716339, -0.016413383185863495, 0.05943268910050392, 0.0010293715167790651, -0.09805312007665634, -0.09434767812490463, -0.09451160579919815, -0.013159454800188541, -0.022170495241880417, -0.10034605860710144, 0.08234299719333649, 0.1267024427652359, -0.0460713729262352, -0.016278723254799843, 0.008107838220894337, -0.05713416635990143, -0.032724566757678986, -0.12641790509223938, -0.10645163804292679, -0.13853177428245544, 0.01107367966324091, -0.1658148169517517, 0.16972076892852783, -0.05992710590362549, -0.11333727091550827, 0.04460947960615158, -0.04183894768357277, -0.010510818101465702, -0.03727932274341583, -0.015047500841319561, -0.15185368061065674, 0.013189881108701229, -0.09599779546260834, -0.06820952892303467, -0.02334093302488327, -0.07162456959486008, 0.03755498304963112, -0.1597764939069748, -0.08974305540323257, -0.15379640460014343, -0.042569417506456375, 0.01589847542345524, -0.16117465496063232, -0.03395276516675949, -0.1105814278125763, 0.12815740704536438, -0.08030769228935242, 0.0677274614572525, -0.202530175447464, 0.08814011514186859, -0.11267225444316864, 0.13719353079795837, -0.012451378628611565, -0.18841353058815002, 0.15271446108818054, -0.01926303468644619, -0.12768134474754333, -0.2017722725868225, -0.1877521574497223, 0.10323861986398697, -0.034376055002212524, -0.1890832483768463, 0.12098502367734909, -0.032042596489191055, -0.05383213236927986, -0.12323684990406036, -0.1784888505935669, -0.021732177585363388, -0.1777154803276062, 0.048076946288347244, -0.1171882227063179, 0.025207391008734703, -0.07844850420951843, 0.018229614943265915, -0.06994009763002396, 0.08184441924095154, -0.0241080354899168, 0.10087983310222626, -0.19754928350448608, 0.04838060587644577, -0.1082446426153183, -0.03478064015507698, -0.0807468369603157, 0.01765403337776661, 0.04838733747601509, 0.004204510245472193, -0.08880001306533813, -0.1722872257232666, -0.061056237667798996, 0.03583534061908722, -0.1551741361618042, 0.009099742397665977, -0.016994480043649673, 0.03855724632740021, 0.007414461113512516, 0.045248471200466156, 0.06834809482097626, 0.02217400074005127, 0.034299422055482864, 0.08885664492845535, -0.1083364486694336, -0.011079363524913788, -0.0012957220897078514, 0.06398428976535797, -0.03788115084171295, -0.10909861326217651, -0.1395110934972763, 0.11366739124059677, -0.15428444743156433, 0.15072181820869446, 0.03614569082856178, -0.13887068629264832, 0.03259064629673958, -0.017389673739671707, -0.029015125706791878, -0.17855165898799896, -0.15380612015724182, -0.20535992085933685, -0.17884674668312073, -0.08231449872255325, 0.01468594092875719, -0.11404100060462952, -0.13417948782444, -0.02972312644124031, -0.04760626330971718, 0.09779394418001175, -0.2127281278371811, -0.20867383480072021, 0.03284657001495361, 0.09389626979827881, 0.16208143532276154, 0.05089491605758667, -0.083635114133358, 0.07141627371311188, 0.04818252474069595, 0.13041730225086212, 0.015557213686406612, -0.029361668974161148, 0.09665744751691818, 0.17525318264961243, -0.13859149813652039, 0.051827456802129745, 0.09639324992895126, -0.03911922127008438, 0.10075889527797699, -0.060361314564943314, 0.009959741495549679, -0.04519696906208992, -0.04177144542336464, 0.1395954042673111, 0.06325259804725647, 0.0069573107175529, 0.15764889121055603, 0.07166953384876251, -0.058876097202301025, 0.17081452906131744, 0.15109141170978546, 0.02151193469762802, 0.13814634084701538, 0.13469605147838593, 0.10564668476581573, -0.08487031608819962, 0.04053821787238121, -0.14565126597881317, 0.09528703987598419, 0.12614579498767853, 0.14446325600147247, 0.11338280886411667, 0.17148686945438385, 0.1519070565700531, 0.09780263155698776, -0.06437543034553528, -0.008605574257671833, 0.007749444339424372, -0.03221054747700691, 0.14380083978176117, 0.020095165818929672, 0.03357332944869995, 0.11655715107917786, 0.1561666876077652, 0.08323215693235397, 0.14945612847805023, 0.0742967277765274, 0.0038273949176073074, 0.07082268595695496, 0.03544538468122482, 0.13601276278495789, -0.10764722526073456, -0.09516435116529465, 0.035191651433706284, 0.08242759853601456, -0.024552129209041595, -0.004906368907541037, 0.13856753706932068, 0.11374237388372421, -0.07913190871477127, -0.04708954691886902, 0.11573708802461624, 0.03374303877353668, 6.962699262658134e-05, -0.16034168004989624, 0.019782651215791702, -0.08022263646125793, -0.007051513064652681, -0.14478950202465057, -0.04152948409318924, -0.0460950993001461, -0.08255346119403839, -0.046028558164834976, 0.01202672254294157, 0.10354054719209671, 0.09281684458255768, 0.014579586684703827, -0.03744690865278244, -0.0362505167722702, -0.019199591130018234, 0.019904153421521187, 0.0034734602086246014, 0.05423298478126526, 0.14658001065254211, 0.10347823798656464, -0.0741225853562355, 0.029336154460906982, 0.011381049640476704, -0.059468626976013184, -0.010662088170647621, 0.03951632231473923, -0.05536962300539017, 0.11673314869403839, 0.13815255463123322, -0.09509003907442093, 0.13239754736423492, -0.17873115837574005, -0.07150155305862427, 0.009648039005696774, 0.048004504293203354, 0.1373405158519745, -0.1537763923406601, 0.09078051894903183, 0.07685670256614685, 0.16038106381893158, 0.08608310669660568, -0.0782734826207161, 0.02966941148042679, 0.023019416257739067, 0.037414565682411194, 0.11418678611516953, 0.06624239683151245, 0.0969926044344902, -0.014948065392673016, -0.041780270636081696, 0.1503610610961914, -0.022597337141633034, 0.14098091423511505, -0.1656484752893448, -0.12607884407043457, -0.1374666839838028, 0.1237768903374672, -0.009510854259133339, -0.10146365314722061, -0.18981219828128815, 0.22081127762794495, 0.17087557911872864, 0.13167960941791534, -0.0929626002907753, -0.1671244353055954, 0.05056728422641754, 0.036864954978227615, -0.13280926644802094, 0.029645651578903198, -0.18682761490345, -0.18073546886444092, -0.03318698704242706, 0.15804176032543182, -0.03698527067899704, 0.18654142320156097, -0.12034789472818375, 0.17664362490177155, -0.031632281839847565, 0.014500020071864128, 0.004426421597599983, -0.13920742273330688, -0.0030637190211564302, 0.052369292825460434, -0.0990944355726242, -0.15835018455982208, 0.15693289041519165, -0.0471714623272419, 0.13267216086387634, 0.07708729803562164, -0.04333033785223961, -0.1501522809267044, 0.0704999715089798, -0.09527713805437088, 0.03633647412061691, 0.12695620954036713, 0.025438711047172546, -0.10946808010339737, 0.1424822360277176, 0.1886402666568756, -0.1881704181432724, 0.02161255292594433, -0.10732106864452362, 0.06285495311021805, 0.19496387243270874, -0.03955862298607826, 0.1000809594988823, -0.04875709488987923, -0.16645751893520355, -0.08671961724758148, 0.05420101061463356, -0.19268234074115753, -0.10053061693906784, 0.10585345327854156, 0.04260605573654175, 0.04580264911055565, -0.13400764763355255, 0.08172483742237091, -0.04386943578720093, 0.026941725984215736, 0.0879957526922226, -0.10479902476072311, -0.19788317382335663, 0.07629691809415817, 0.11513888835906982, 0.02468782104551792, 0.17458339035511017, 0.05380299314856529, 0.1751333326101303, -0.15096166729927063, -0.1401285082101822, 0.028079016134142876, 0.11739900708198547, 0.0825391411781311, 0.18854723870754242, -0.0974908098578453, -0.15227514505386353, -0.14638909697532654, 0.12034662812948227, -0.16363170742988586, 0.06366388499736786, -0.02204941213130951, -0.1698286235332489, -0.04876231402158737, 0.16310492157936096, 0.0995485708117485, -0.06100211292505264, -0.15012985467910767, -0.060362789779901505, 0.1658317893743515, 0.058451101183891296, 0.0849597156047821, -0.18558388948440552, 0.11349378526210785, -0.029158227145671844, -0.01746247708797455, -0.06179152429103851, 0.10959732532501221, -0.16998165845870972, -0.023443011566996574, -0.13635456562042236, 0.1016199141740799, 0.10827584564685822, -0.0258804764598608, -0.1318836510181427, -0.11775881797075272, 0.18336252868175507, 0.17419125139713287, 0.045396286994218826, 0.01707600988447666, 0.06738576292991638, -0.15792787075042725, 0.20483188331127167, 0.1957254856824875, 0.0821409672498703, 0.13102373480796814, -0.10398858785629272, -0.19349399209022522, 0.21757158637046814, -0.1028825119137764, -0.035054441541433334]], [[0.05474090576171875, -0.01363240834325552, 0.04221107065677643, -0.008447849191725254, -0.0051152971573174, -0.02056613564491272, -0.05220199376344681, 0.059398602694272995, 0.06529966741800308, -0.016058750450611115, -0.034990306943655014, -0.08093896508216858, -0.007245041895657778, 0.06247499957680702, 0.029504183679819107, 0.0696239247918129, 0.0716051533818245, 0.02666807919740677, -0.04436470568180084, 0.015512469224631786, 0.03697722777724266, 0.015550893731415272, 0.02337641268968582, -0.12372875958681107, -0.09572834521532059, -0.0033326405100524426, 0.030120452865958214, -0.014612863771617413, 0.021403439342975616, -0.008695376105606556, -0.023433540016412735, -0.11554757505655289, -0.05329989269375801, 0.014606104232370853, 0.0179030429571867, -0.021992744877934456, -0.13108572363853455, -0.031276654452085495, -0.10701704025268555, -0.03868911787867546, -0.0022660656832158566, -0.0647798478603363, -0.05268678814172745, 0.06273942440748215, -0.011348097585141659, -0.09836525470018387, 0.014788175001740456, 0.027030861005187035, 0.013875860720872879, 0.049568574875593185, 0.024647695943713188, 0.030654536560177803, -0.0961296334862709, 0.03555701673030853, -0.055401984602212906, -0.06668516248464584, -0.040444422513246536, -0.05112062394618988, -0.04902827739715576, -0.020598074421286583, 0.014026925899088383, -0.011707491241395473, -0.05765688419342041, 0.08174902945756912, -0.04164431616663933, -0.01087096892297268, 0.06052136793732643, -0.05619064345955849, 0.011720219627022743, 0.00594047736376524, -0.016777941957116127, 0.054170116782188416, -0.017971215769648552, -0.013163183815777302, 0.0022813896648585796, -0.007195368874818087, 0.06036724895238876, -0.05700991302728653, 0.013714225962758064, -0.027734307572245598, 0.032016441226005554, 0.054044872522354126, -0.10699769854545593, 0.045874714851379395, 0.051375288516283035, 0.044279806315898895, 0.01806517131626606, -0.08846603333950043, 0.007199373096227646, -0.012702582404017448, 0.011326451785862446, 0.03486991673707962, 0.04531977325677872, 0.05385018512606621, -0.04654011130332947, 0.1457211971282959, 0.016396624967455864, -0.07610999047756195, 0.07749024778604507, -0.021329203620553017, 0.08905382454395294, -0.044504787772893906, -0.05178853124380112, 0.01752287521958351, 0.0606803372502327, 0.03497062623500824, 0.0821225494146347, 0.012642926536500454, -0.034304551780223846, 0.04770413786172867, -0.01532659586519003, -0.030873525887727737, 0.020357560366392136, 0.0532359704375267, 0.089993916451931, 0.05775538459420204, 0.016431255266070366, -0.0412549190223217, -0.006875976920127869, -0.05535542964935303, 0.0958060622215271, -0.054041825234889984, 0.00978849921375513, 0.03989408165216446, -0.011313674971461296, 0.029165131971240044, -0.020288722589612007, -0.04207177087664604, -0.04247106611728668, 0.017811719328165054, 0.00946372002363205, -0.0030026319436728954, 0.027433617040514946, 0.011366031132638454, -0.04763566330075264, -0.04554383456707001, 0.08207589387893677, -0.046197909861803055, -0.006322796456515789, 0.058664947748184204, -0.04721460118889809, 0.01911460980772972, 0.0356658473610878, 0.01534136850386858, 0.04992358013987541, -0.00800950638949871, 0.07258182764053345, 0.0595574788749218, -0.002190274652093649, 0.02914302423596382, -0.0661778673529625, -0.0013035520678386092, -0.070868119597435, 0.04905717819929123, 0.06652159988880157, 0.06101450324058533, 0.046508271247148514, -0.061969924718141556, -0.03777838870882988, -0.07876822352409363, 0.044800762087106705, 0.07267101854085922, 0.008144766092300415, 0.003227326087653637, -0.027297593653202057, -0.017028972506523132, -0.04090779274702072, 0.08117667585611343, 0.00011794390593422577, -0.11215038597583771, 0.0229684729129076, -0.012495294213294983, 0.0520167350769043, 0.06946157664060593, 0.02166425809264183, -0.007194620557129383, -0.011988924816250801, -0.05237425118684769, 0.006828459911048412, -0.07461515069007874, -0.029892362654209137, 0.0016759862191975117, 0.08387021720409393, -0.02538619562983513, -0.06074463203549385, -0.09444929659366608, -0.00362699618563056, 0.021728241816163063, 0.05362626537680626, -0.0851239264011383, -0.02294250950217247, 0.021533137187361717, 0.036216627806425095, 0.047555942088365555, 0.031709179282188416, -0.022412702441215515, -0.0797714814543724, 0.04488387331366539, 0.08398309350013733, 0.03785517066717148, -0.0030826576985418797, 0.038117192685604095, -0.007553874980658293, 0.034507621079683304, 0.08984003216028214, -0.049350179731845856, 0.02139182761311531, 0.021758759394288063, -0.044019605964422226, -0.06537202000617981, -0.007448265329003334, 0.03638274222612381, -0.06195762753486633, -0.0052330587059259415, -0.02644454501569271, -0.03561614826321602, -0.09176833927631378, -0.06154218688607216, 0.08421414345502853, -0.0034077519085258245, 0.012414363212883472, -0.0373692512512207, -0.06075846031308174, 0.006047102157026529, -0.07885151356458664, -0.027544640004634857, 0.03671065345406532, -0.0013526373077183962, 0.10924015194177628, 0.07983015477657318, 0.060131363570690155, 0.08349635452032089, -0.019974607974290848, 0.014046479016542435, 0.037037841975688934, 0.0295315720140934, 0.0036387897562235594, 0.10544998943805695, -0.011303155682981014, -0.017861034721136093, -0.06603018194437027, 0.03009684756398201, -0.05629757046699524, 0.0405806303024292, 0.027799375355243683, 0.07813403010368347, -0.05925145000219345, -0.024585673585534096, -0.03552396222949028, 0.041101135313510895, -0.10811246186494827, -0.10004997253417969, -0.07865046709775925, 0.04793238639831543, -0.08093348145484924, -0.0021619524341076612, -0.008860139176249504, -0.02645462192595005, 0.027185972779989243, -0.025554530322551727, -0.01857149600982666, 0.08776822686195374, -0.023408204317092896, 0.004166678059846163, 0.002272392390295863, 0.0028424072079360485, 0.02251042239367962, -0.017044270411133766, 0.05154554918408394, 0.014174625277519226, 0.011625448241829872, -0.01116978283971548, 0.061173006892204285, -0.005848039407283068, -0.008296196348965168, 0.14478127658367157, 0.0029037173371762037, 0.004675571341067553, 0.0278999675065279, -0.005649152211844921, 0.00859519187361002, 0.055205076932907104, -0.013867158442735672, -0.004285039845854044, 0.02513827569782734, -0.04935828968882561, 0.01765407621860504, -0.054794296622276306, 0.04843820631504059, 0.08688318729400635, 0.0001881134376162663, -0.00411120755597949, 0.005434371065348387, 0.001812670030631125, 0.008849668316543102, -0.012185427360236645, -0.0367935374379158, -0.10570783168077469, -0.04815145209431648, -0.06101853772997856, -0.07971946895122528, -0.06060892716050148, 0.08436936140060425, -0.03650171309709549, 0.02325684204697609, 0.07488412410020828, -0.024848684668540955, 0.05854696407914162, -0.001201295992359519, 0.029345126822590828, 0.03629082441329956, 0.05781485512852669, -0.04888613894581795, 0.012123139575123787, -0.0011699299793690443, 0.07795702666044235, -0.0426284596323967, 0.0017850976437330246, 0.043992407619953156, -0.02119830623269081, -0.0030900519341230392, -0.04797590896487236, 0.07039321959018707, 0.014131494797766209, 0.011320129968225956, 0.09130454808473587, -0.1138782799243927, 0.021544642746448517, 0.007223154883831739, -0.01594541035592556, -0.01879408210515976, 0.03794379159808159, 0.028794949874281883, -0.04426136985421181, -0.02457878738641739, -0.018196769058704376, 0.013934778049588203, 0.0505945086479187, 0.06807419657707214, -0.1428479552268982, 0.03297169879078865, -0.02544022910296917, 0.005399883724749088, -0.01466312538832426, 0.13413505256175995, -0.09708822518587112, 0.029282595962285995, 0.07881228625774384, -0.05635371804237366, 0.05543071776628494, -0.017035042867064476, 0.08073895424604416, -0.04752666875720024, -0.031056486070156097, -0.06491142511367798, -0.01684110425412655, 0.04862867668271065, 0.01735575869679451, 0.0038452446460723877, 0.04728643596172333, 0.019130641594529152, 0.06481356918811798, -0.04772225394845009, 0.02579605206847191, 0.005058255046606064, 0.024937041103839874, 0.027433296665549278, -0.09084872901439667, 0.07686489075422287, -0.03101268969476223, 0.05810140073299408, 0.017425931990146637, 0.12216133624315262, 0.015741016715765, 0.06446266919374466, -0.029813820496201515, -0.07029365003108978, 0.017061088234186172, 0.04757330194115639, 0.037705305963754654, 0.10934008657932281, -0.06940698623657227, 0.0033418985549360514, 0.02176026813685894], [-0.0053045907989144325, -0.057342529296875, 0.10193078964948654, 0.015867028385400772, -0.002184113021939993, -0.030082762241363525, -0.0013251346535980701, 0.031941719353199005, 0.04703491926193237, -0.0696471780538559, -0.13324132561683655, -0.07396340370178223, -0.015973789617419243, 0.031981393694877625, -0.020098593086004257, 0.04670974239706993, -0.042274121195077896, -0.02393721044063568, 0.09593765437602997, 0.019748959690332413, 0.01713777333498001, -0.05059481039643288, 0.05039516091346741, 0.0783969983458519, 0.04865637049078941, 0.08585786074399948, -0.02271798439323902, 0.11200360208749771, -0.023182017728686333, -0.03017599880695343, 0.08375087380409241, -0.10231414437294006, 0.0260522048920393, 0.04592156410217285, -0.06746110320091248, 0.03861803933978081, 0.059205710887908936, -0.014048482291400433, -0.03316091373562813, 0.04293200746178627, -0.018401727080345154, 0.05994686111807823, -0.12531675398349762, 0.005032648798078299, -0.05739840492606163, -0.0087968148291111, 0.040448255836963654, -0.06620807945728302, 0.023906879127025604, -0.0022432836703956127, -0.06561972200870514, -0.023608088493347168, -0.03939131647348404, -0.04194449633359909, 0.04628165811300278, 0.0021397247910499573, -0.021640973165631294, 0.01488011796027422, 0.01198797021061182, 0.03660139814019203, -0.02112683095037937, -0.047301579266786575, 0.0261574387550354, -0.07138919830322266, -0.048453401774168015, -0.008179161697626114, 0.04672672227025032, -0.055883899331092834, -0.002438228577375412, 0.039760515093803406, 0.026619305834174156, -0.03244689106941223, -0.07704298943281174, -0.02788257598876953, 0.04121532291173935, 0.08993647992610931, 0.039521295577287674, 0.09029244631528854, -0.00949183851480484, 0.027852091938257217, -0.03312992304563522, 0.011163716204464436, -0.0356750413775444, 0.07409172505140305, 0.05321521684527397, -0.031858284026384354, 0.07458649575710297, -0.04671888053417206, -0.009646475315093994, -0.03931178152561188, 0.004084994550794363, 0.014110375195741653, 0.0041151391342282295, -0.012664813548326492, -0.06707803159952164, 0.001231514266692102, 0.00990640465170145, 0.06809292733669281, 0.03848227858543396, 0.03299129009246826, 0.02062065899372101, 0.02321144938468933, 0.09657656401395798, -0.030861904844641685, 0.046625129878520966, 0.021639587357640266, 0.056386254727840424, -0.006547232158482075, -0.034168221056461334, 0.1261257529258728, -0.062490370124578476, -0.026580730453133583, 0.05252276733517647, 0.03854593262076378, 0.007461149245500565, 0.016108354553580284, 0.05063968524336815, 0.020316682755947113, -0.03289828822016716, -0.020304754376411438, -0.006344901397824287, 0.07334723323583603, 0.09504050016403198, 0.11839909106492996, 0.05545783042907715, 0.04537801072001457, 0.030089734122157097, -0.012911426834762096, -0.006419575307518244, -0.023484108969569206, -0.06762576103210449, 0.006160857621580362, -0.008392161689698696, 0.010797757655382156, 0.054331544786691666, -0.05332636460661888, -0.06239257752895355, -0.037105899304151535, -0.025008464232087135, -0.013299846090376377, 0.04266401380300522, 0.006001121364533901, -0.016005296260118484, 0.051773231476545334, -0.0004825462820008397, -0.0074284556321799755, 0.08043075352907181, -0.04034775123000145, 0.010516497306525707, 0.05692758038640022, 0.014404437504708767, -0.005113983526825905, 0.07018645852804184, -0.10164550691843033, -0.05812404304742813, -0.0713973194360733, -0.017171375453472137, 0.034548934549093246, -0.017834601923823357, -0.00555621599778533, 0.07399189472198486, -0.056819356977939606, -0.08529351651668549, -0.02437480352818966, -0.05185847356915474, -0.04400165379047394, -0.06450497359037399, -0.05111119896173477, -0.04323238506913185, -0.027624357491731644, -0.022288039326667786, -0.01212778314948082, 0.043212857097387314, 0.013211765326559544, -0.006177668925374746, 0.0544973686337471, -0.07940605282783508, 0.0038669330533593893, 0.017174704000353813, 0.042041100561618805, 0.037934742867946625, 0.06650780141353607, -0.03897840902209282, 0.061519473791122437, 0.03212863951921463, -0.026123641058802605, 0.016825947910547256, -0.029767634347081184, 0.06315642595291138, 0.08813151717185974, 0.03631846234202385, -0.05556895583868027, 0.018092656508088112, 0.028896884992718697, 0.05300116539001465, 0.000678868091199547, 0.009633622132241726, 0.049960337579250336, -0.04336090385913849, 0.05313580110669136, -0.06796006113290787, -0.09789472818374634, 0.009513039141893387, -0.034102912992239, -0.001664741663262248, 0.004693222232162952, 0.08308008313179016, -0.024752112105488777, -0.025997737422585487, -0.033105526119470596, -0.04021383449435234, -0.01829581893980503, -0.04645199701189995, -0.06400173902511597, -0.018453139811754227, -0.1025930717587471, 0.0006320600514300168, -0.006223199889063835, 0.06781361997127533, 0.038730598986148834, 0.03635811805725098, -0.00894875917583704, -0.06723427772521973, -0.020331351086497307, 0.03227067366242409, -0.021796396002173424, -0.018076103180646896, 0.01610327884554863, -0.01923779956996441, 0.0013829863164573908, 0.03739931061863899, -0.038723256438970566, 0.028452925384044647, 0.010167957283556461, 0.03980042040348053, 0.029176561161875725, -0.052102282643318176, 0.02469640038907528, -0.12144041061401367, 0.007405370008200407, -0.05729517713189125, 0.08099311590194702, 0.08922942727804184, -0.03981180861592293, -0.021881336346268654, 0.06440991908311844, 0.09815622121095657, -0.022386811673641205, -0.00018194936274085194, -0.024798600003123283, -0.028258025646209717, 0.007572241593152285, 0.04157524183392525, 0.025426456704735756, -0.015536072663962841, -0.01761840283870697, 0.027088718488812447, -0.128472238779068, -0.08097320050001144, 0.1075022891163826, 0.012961509637534618, 0.011441465467214584, -0.06437188386917114, 0.012751957401633263, 0.03777525573968887, -0.004513322841376066, -0.022048622369766235, 0.015060900710523129, 0.03511166200041771, 0.06626877188682556, -0.017338013276457787, -0.10819588601589203, 0.04615043103694916, 0.012312398292124271, 0.03493861109018326, -0.1060314029455185, -0.009903140366077423, 0.06970035284757614, -0.030438734218478203, 0.07797633111476898, -0.01838047429919243, 0.001343222102150321, -0.047444503754377365, -0.005645249038934708, -0.06159515678882599, -0.08808490633964539, -0.0031599351204931736, -0.0606067031621933, -0.08050570636987686, 0.12896645069122314, 0.13065806031227112, -0.08523684740066528, -0.0975252166390419, -0.017385119572281837, 0.04669925197958946, -0.000890424707904458, 0.058118097484111786, -0.00036419782554730773, 0.011523191817104816, 0.011716420762240887, 0.07305964827537537, -0.012227420695126057, 0.07636372745037079, 0.08251999318599701, -0.013957482762634754, -0.07648136466741562, -0.025577200576663017, -0.014253683388233185, -0.01743677258491516, 0.009320108219981194, 0.10896016657352448, -0.029507234692573547, 0.030115745961666107, -0.09935382753610611, 0.010462778620421886, 0.07807329297065735, -0.07986381649971008, -0.10678310692310333, -0.09661978483200073, 0.06573418527841568, -0.11543478816747665, 0.048430945724248886, -0.026069276034832, -0.04567832499742508, -0.0513245090842247, -0.002589187351986766, 0.01975812390446663, 0.007747808005660772, -0.05573919788002968, -0.05556734651327133, -0.09365884214639664, -0.055833540856838226, 0.023346135392785072, 0.05708221346139908, 0.0543389618396759, 0.04625989496707916, -0.0542595311999321, -0.025704193860292435, 0.05102408304810524, 0.01551954634487629, 0.09228730201721191, 0.0068059745244681835, 0.01777978613972664, 0.03598983958363533, -0.04815646633505821, 0.010861906222999096, -0.04323393478989601, -0.022644443437457085, -0.034185439348220825, 0.028766080737113953, -0.05053366348147392, 0.02111944742500782, -0.003012120258063078, 0.07323426753282547, 0.018489181995391846, -0.1011873111128807, -0.028672808781266212, 0.049272336065769196, -0.011809028685092926, 0.023158948868513107, 0.02459908463060856, 0.04519167169928551, 0.018388541415333748, 0.015998035669326782, -0.013271297328174114, 0.01072966679930687, -0.0651526227593422, 0.005498839542269707, 0.04217282682657242, -0.11458560824394226, -0.014019717462360859, -0.03683345392346382, -0.00669719185680151, 0.032798461616039276, 0.013042603619396687, -0.035400666296482086, 0.05516909435391426, 0.06503614038228989, -0.055343858897686005, 0.012378435581922531, -0.00770376855507493, 0.08796267956495285, 0.05834813043475151, 0.007329050451517105], [-0.09113980829715729, 0.04582101106643677, -0.037873029708862305, 0.03322398290038109, 0.05121519789099693, 0.01939283311367035, 0.09224818646907806, 0.08141768723726273, -0.05779282748699188, 0.012590175494551659, -0.034876611083745956, 0.0017126668244600296, 0.06176755204796791, -0.011280529201030731, 0.050996292382478714, 0.011702461168169975, 0.07242535799741745, -0.023728789761662483, -0.01914048194885254, 0.057536497712135315, 0.013167256489396095, -0.08088270574808121, 0.01403885893523693, -0.0765952542424202, 0.032685332000255585, 0.02114931121468544, 0.055844858288764954, -0.059319376945495605, 0.0033153221011161804, -0.03843929246068001, 0.007664169184863567, 0.006162223406136036, -0.04219314083456993, -0.024658359587192535, -0.04248886555433273, -0.007038216106593609, -0.0011969087645411491, -0.03734873607754707, 0.019372349604964256, 0.050385404378175735, -0.00511203845962882, 0.033964939415454865, -0.05312613397836685, 0.014814041554927826, -0.026866672560572624, -0.10727646201848984, -0.014398621395230293, -0.023770874366164207, 0.04452776536345482, 0.039807990193367004, -0.01970263570547104, -0.02455950900912285, -0.014680782333016396, 0.016583718359470367, -0.025473536923527718, 0.03477707877755165, 0.05227890610694885, -9.29275993257761e-05, -0.015932491049170494, 0.11131669580936432, 0.044941917061805725, -0.044442541897296906, -0.015804361552000046, 0.0067007094621658325, -0.14217141270637512, -0.05819910019636154, -0.041521910578012466, 0.10754376649856567, 0.04081620275974274, 0.015138912945985794, 0.06421437114477158, 0.09327711910009384, 0.018309593200683594, -0.0921747162938118, 0.09299685060977936, -0.037504490464925766, 0.0685957744717598, 0.045784156769514084, 0.009960722178220749, -0.00150751241017133, -0.11767108738422394, 0.042452141642570496, -0.022955510765314102, -0.11281718313694, -0.07168014347553253, 0.019709523767232895, -0.08897729963064194, 0.051132239401340485, 0.0385127030313015, 0.03195004537701607, -0.061456188559532166, -0.008948072791099548, -0.010428848676383495, 0.05493447184562683, -0.07624687999486923, -0.01054541114717722, 0.0784076675772667, 0.050248440355062485, 0.05648442357778549, 0.02182859182357788, 0.09492423385381699, 0.05072088539600372, -0.001484034233726561, -0.030717503279447556, -0.013567069545388222, -0.013775523751974106, -0.03991889953613281, 0.06511225551366806, 0.061740435659885406, 0.001841619610786438, -0.04121996834874153, 0.006834732368588448, -0.08558186143636703, 0.025697123259305954, 0.0348912812769413, 0.07221918553113937, 0.00863575004041195, -0.02937263995409012, 0.03714440390467644, -0.06401810795068741, -0.06375891715288162, 0.04632805660367012, 0.03256266564130783, 0.08490550518035889, -0.046344976872205734, 0.02522679977118969, -0.010123338550329208, -0.08932008594274521, -0.0305011048913002, -0.051215436309576035, 0.05216432735323906, 0.06287539750337601, -0.033011544495821, 0.06473463028669357, 0.01368497684597969, 0.032306406646966934, -0.023958813399076462, 0.11102363467216492, 0.037164513021707535, 0.05710335075855255, 0.048644959926605225, 0.06917847692966461, 0.000725101912394166, 0.0026146401651203632, -0.009468344040215015, -0.011210883967578411, 0.050936322659254074, 0.06733398139476776, -0.03415379673242569, -0.02611863613128662, 0.06582015752792358, -0.0015188357792794704, -0.11171434819698334, 0.03597497567534447, -0.004800791852176189, 0.01500435546040535, 0.008943913504481316, 0.09152457118034363, 0.05345005542039871, 0.02026248164474964, -0.070123590528965, 0.0039518713019788265, 0.028667133301496506, -0.02248574048280716, 0.07583834230899811, -0.1325366348028183, -0.008384732529520988, 0.04679059982299805, 0.10796695947647095, -0.027830954641103745, 0.02418474107980728, -0.04591556265950203, 0.03348742425441742, 0.04564642533659935, -0.008248040452599525, 0.046997833997011185, -0.016366634517908096, 0.06804312020540237, 0.10006672888994217, 0.10123182833194733, -0.009229391813278198, 0.0530916228890419, 0.08954145014286041, -0.038945719599723816, 0.03612438216805458, -0.01422071736305952, -0.013426600024104118, 0.04637448117136955, -0.04010516777634621, 0.06940822303295135, -0.025488266721367836, -0.021579859778285027, 0.045600809156894684, -0.01538849901407957, 0.04793229326605797, 0.035874143242836, -0.018565824255347252, 0.04422366991639137, 0.03371549770236015, -0.03012028895318508, 0.03212901949882507, -0.024857714772224426, -0.0016177459619939327, -0.011149272322654724, -0.1083189994096756, -0.001174707431346178, 0.004150932654738426, 0.007710500154644251, -0.08958208560943604, 0.009988674893975258, 0.004706234205514193, 0.010082353837788105, 0.07297966629266739, -0.05289486423134804, 0.02995298057794571, -0.01377040520310402, -0.03035057708621025, 0.03990762680768967, 0.0014868639409542084, -0.03200999274849892, -0.014454176649451256, 0.006640231236815453, 0.0340418703854084, -0.018986618146300316, -0.04573047161102295, 0.11425758898258209, -0.03284548223018646, 0.027204830199480057, 0.006448570638895035, 0.03192586451768875, -0.015326522290706635, -0.0630456879734993, -0.04564668610692024, -0.026660945266485214, -0.06925371289253235, -0.05281803756952286, -0.06974957883358002, 0.004378346726298332, 0.02596171386539936, -0.07519085705280304, -0.06317532062530518, -0.042309198528528214, -0.04038327559828758, 0.18284226953983307, -0.044750187546014786, 0.06105091795325279, 0.09660559892654419, -0.08151651173830032, 0.07569719851016998, -0.024660183116793633, 0.004697149153798819, 0.03599480912089348, 0.041195113211870193, 0.004431656561791897, -0.07826252281665802, -0.10360927879810333, 0.037556104362010956, 0.04875226691365242, -0.021475117653608322, -0.04511824622750282, 0.01207959745079279, 0.000132635235786438, 0.015798546373844147, 0.057236626744270325, 0.013414080254733562, -0.018605874851346016, 0.033379845321178436, -0.04771718755364418, 0.0007509416900575161, -0.03498275205492973, 0.05579343065619469, 0.06587152928113937, -0.02948293834924698, -0.06919548660516739, -0.05461717024445534, -0.0569676011800766, 0.04319275915622711, -0.02717781253159046, 0.010785524733364582, 0.018489809706807137, 0.07631425559520721, -0.04639493674039841, 0.05033774673938751, -0.004753944929689169, -0.012429023161530495, 0.00506324227899313, -0.028910381719470024, -0.0579320453107357, -0.025208212435245514, 0.008454771712422371, 0.006044766865670681, 0.12071583420038223, -0.0038058492355048656, -0.042198389768600464, 0.003404222894459963, -0.004849518649280071, 0.052158597856760025, -0.08689069002866745, 0.00618523545563221, -0.03467297554016113, 0.09933721274137497, -0.007976848632097244, 0.0057188645005226135, -0.04802398383617401, 0.004479177761822939, -0.06253544986248016, -0.1148780807852745, 0.024561680853366852, -0.052172280848026276, 0.032189883291721344, 0.1092824712395668, -0.04948486015200615, 0.0010744089959189296, -0.03954308480024338, 0.07550888508558273, 0.04872315749526024, 0.08358711749315262, -0.03040633350610733, 0.06840861588716507, -0.0032704623881727457, -0.03905504569411278, 0.009150620549917221, 0.033966898918151855, -0.07966703921556473, 0.029562629759311676, -0.022362347692251205, 0.03122624382376671, -0.02484775148332119, 0.056327227503061295, -0.0640462189912796, 0.08919753134250641, -0.021738983690738678, 0.04301407188177109, 0.005395354237407446, -0.07076256722211838, -0.027513833716511726, 0.02687818370759487, 0.046348221600055695, -0.03898438438773155, 0.012517394497990608, -0.05486941337585449, -0.03436166048049927, 0.03041577711701393, -0.06171335652470589, -0.037106744945049286, -0.07360714673995972, 0.015574408695101738, -0.021961567923426628, -0.010532105341553688, -0.043596941977739334, 0.05868682637810707, -0.06585057824850082, 0.09736739844083786, 0.026037773117423058, -0.008846750482916832, 0.028100062161684036, 0.06697288900613785, 0.10276161134243011, 0.012675808742642403, -0.04095369204878807, -0.1230057030916214, 0.0060998257249593735, 0.08006864041090012, -0.014175611548125744, 0.03073073737323284, 0.05408965423703194, -0.042151521891355515, -0.006172701250761747, 0.0430753156542778, 0.028828375041484833, 0.014267202466726303, 0.010858247987926006, 0.009056329727172852, 0.010400161147117615, -0.049690715968608856, 0.05409041792154312, 0.00021738139912486076, 0.04624440521001816, -0.01235533319413662, -0.018849942833185196, 0.052657704800367355, 0.03415757790207863, -0.05476986616849899, 0.0036819851957261562], [-0.022925255820155144, 0.05393929407000542, 0.01991225965321064, 0.04953467845916748, -0.033746495842933655, 0.038623880594968796, -0.03867143765091896, 0.04530569538474083, -0.0007194996578618884, 0.15985991060733795, -0.062016651034355164, 0.05049295350909233, 0.015131992287933826, 0.004058662801980972, 0.02684825286269188, -0.004065685905516148, -0.02088324911892414, -0.05325033888220787, -0.024997780099511147, 0.022567979991436005, 0.04564455524086952, -0.057738058269023895, -0.0012353803031146526, 0.020725067704916, 0.030401693657040596, 0.04082823172211647, -0.0028924476355314255, -0.026987671852111816, 0.00977385975420475, 0.11212669312953949, -0.05067287012934685, -0.02362016588449478, -0.040934931486845016, -0.08751563727855682, -0.00799168273806572, -0.038954976946115494, -0.14523433148860931, 0.04146876931190491, -0.09651025384664536, 0.07606275379657745, -0.02126447856426239, -0.023208022117614746, 0.019279705360531807, 0.0704629197716713, -0.058819133788347244, 0.03729812055826187, -0.012194482609629631, -0.011819256469607353, 0.07741314172744751, 0.009004122577607632, -0.10174810886383057, -0.03339839726686478, -0.0037647602148354053, 0.021428929641842842, -0.02787518873810768, 0.01235241536051035, -0.03904545679688454, -0.031558021903038025, 0.06762652099132538, -0.07421211898326874, -0.008280375972390175, -0.006746659055352211, -0.0014827740378677845, 0.00617772713303566, 0.05186326801776886, 0.02669154480099678, 0.08276166021823883, -0.03474839776754379, -0.06407197564840317, -0.03657057136297226, 0.0474294051527977, -0.013915489427745342, 0.069698765873909, 0.028804119676351547, 0.05227253958582878, -0.005081355571746826, 0.035025354474782944, -0.01893516816198826, 0.010340999811887741, 0.011027154512703419, -0.03113355115056038, 0.05013523995876312, 0.024114295840263367, -0.042071398347616196, 0.09183526039123535, 0.00827799178659916, -0.053992267698049545, 0.047947462648153305, 0.009050421416759491, 0.002910121576860547, 0.024660624563694, 0.011745900847017765, -0.04961013421416283, 0.00944838859140873, 0.054837457835674286, -0.01489424891769886, -0.011075234040617943, 0.01279287226498127, -0.0026319657918065786, 0.05520932748913765, 0.12985411286354065, -0.012096567079424858, 0.03824639692902565, 0.02380247972905636, 0.029358461499214172, 0.0423344187438488, 0.016164863482117653, 0.052220866084098816, 0.09131333231925964, 0.00654186587780714, -0.05569390952587128, 0.043870504945516586, 0.010349939577281475, 0.05418707802891731, -0.04697217047214508, -0.07557062059640884, -0.11711550503969193, 0.05445507541298866, 0.019023682922124863, 0.048127565532922745, 0.039486341178417206, 0.08098737895488739, 0.09762739390134811, -0.015133319422602654, 0.013866412453353405, 0.06153327599167824, 0.013301054015755653, 0.08001748472452164, -0.013261061161756516, 0.04206934571266174, -0.07903663069009781, 0.05102165415883064, 0.0352642685174942, -0.028366103768348694, -0.0333465076982975, -0.04783846065402031, -0.07644622027873993, -0.0038626736495643854, 0.017564022913575172, 0.013428488746285439, -0.04593918099999428, -0.03993816673755646, 0.05550356209278107, -0.05132127180695534, -0.0018478903220966458, -0.06967770308256149, 0.053913917392492294, -0.0769864022731781, 0.017180895432829857, -0.04480494558811188, 0.020440716296434402, 0.09870705008506775, 0.040523555129766464, 0.10949620604515076, -0.08232984691858292, 0.05303420126438141, 0.12160732597112656, 0.049110837280750275, 0.04124937951564789, 0.014236031100153923, 0.03730528801679611, 0.02698981948196888, 0.04784553498029709, 0.005144906230270863, 0.009896975010633469, -0.013327124528586864, 0.08451621234416962, 0.07132454961538315, 0.012859190814197063, -0.065561942756176, 0.05898883566260338, 0.044319037348032, 0.01603284850716591, 0.05182218179106712, -0.011209345422685146, 0.01902162842452526, -0.056939661502838135, 0.024067869409918785, -0.08103948086500168, 0.03356187045574188, 0.0106656514108181, 0.0322120226919651, -0.049157869070768356, 0.05403264984488487, 0.01995430514216423, -0.0698583796620369, 0.021360885351896286, -0.11530756950378418, 0.09484685212373734, -0.026372816413640976, 0.019598310813307762, -0.04224221780896187, -0.0012141685001552105, 0.04460257664322853, 0.05810116231441498, -0.006963516119867563, -0.023081615567207336, -0.01597798801958561, -0.05214809998869896, -0.029319658875465393, -0.046442385762929916, 0.10362441092729568, 0.03932597115635872, 0.00945515837520361, -0.014172926545143127, 0.0037985725793987513, -0.03310488536953926, 0.007172831334173679, 0.0014761816710233688, -0.0022496997844427824, -0.0025715644005686045, -0.027284938842058182, 0.0005765808746218681, -0.04377208277583122, 0.0583418644964695, -0.0032070502638816833, -0.04632720351219177, -0.075395368039608, 0.03017270378768444, -0.009478585794568062, 0.09791266173124313, 0.01990790106356144, 0.040742531418800354, 0.03747090324759483, 0.08105266094207764, -0.03432149812579155, 0.009702358394861221, 0.009288124740123749, -0.042654529213905334, -0.11579330265522003, -0.05632100999355316, 0.02932361513376236, 0.0012575697619467974, 0.05091826245188713, -0.023942584171891212, 0.05269136279821396, 0.02498561143875122, 0.09770891070365906, 0.03183479607105255, -0.10378342866897583, 0.025999167934060097, -0.040729474276304245, -0.014886200428009033, 0.04129235818982124, 0.03144053742289543, -0.035244498401880264, -0.025002840906381607, 0.027066349983215332, -0.013009332120418549, -0.11660812795162201, 0.13747303187847137, -0.010964835062623024, 0.0760345607995987, 0.028555454686284065, 0.039756692945957184, -0.07125023752450943, -0.012071283534169197, 0.07130435854196548, -0.013796865940093994, 0.03323041647672653, 0.0696248933672905, 0.039757031947374344, -0.02305164746940136, 0.05405103415250778, 0.13969643414020538, -0.032193370163440704, 0.009653208777308464, -0.07852043956518173, -0.0009974807035177946, -0.03317893296480179, -0.025110967457294464, 0.09906749427318573, -0.005944416858255863, -0.05276656150817871, -0.0022867629304528236, -0.07823210954666138, 0.020124297589063644, -0.017629684880375862, -0.01593080163002014, 0.019447240978479385, -0.07311412692070007, 0.004680681973695755, 0.04089803621172905, 0.012890367768704891, -0.0039812121540308, -0.04317433014512062, -0.014890270307660103, -0.05736042559146881, 0.044928908348083496, -0.015600273385643959, 0.05927792936563492, 0.006361545994877815, -0.007292771711945534, -0.051537297666072845, 0.13988909125328064, -0.030256716534495354, 0.06962836533784866, 0.05078088119626045, -0.023235229775309563, -0.04173746705055237, -0.08135688304901123, -0.011415554210543633, 0.057773835957050323, 0.014977424405515194, 0.027630269527435303, 0.023124413564801216, -0.007973629981279373, -0.03768492490053177, 0.03279109671711922, -0.028339676558971405, -0.03806351497769356, -0.05598795413970947, -0.02447338029742241, 0.04594293609261513, 0.006084228865802288, -0.04066644608974457, 0.03743512183427811, 0.07520045340061188, 0.05133723095059395, -0.027794450521469116, -0.03557668626308441, 0.07966373860836029, -0.07308761030435562, 0.04247761517763138, -0.031367227435112, -0.032453689724206924, 0.0846433937549591, -0.02774003893136978, -0.011007122695446014, -0.06352647393941879, -0.03140703961253166, 0.07329875230789185, -0.07593583315610886, 0.033019889146089554, -0.06888830661773682, 0.04043542221188545, 0.03544707968831062, 0.0063470774330198765, -0.05429133400321007, 0.06210507079958916, 0.07484880089759827, 0.06260496377944946, -0.01755226030945778, -0.030415719375014305, 0.03760682791471481, -0.004046552814543247, 0.048696596175432205, 0.011789960786700249, -0.06359728425741196, -0.01758814975619316, 0.004059093538671732, -0.04446832835674286, 0.006993827410042286, 0.06358777731657028, -0.040270909667015076, 0.0702432170510292, -0.02014796808362007, -0.07198318839073181, -0.13354094326496124, 0.05467803403735161, 0.07197339087724686, 0.0403963178396225, -0.058005284518003464, -0.03438974916934967, -0.019801493734121323, 0.004725755658000708, 0.03309464082121849, -0.04277511686086655, -0.007649935316294432, -0.007904848083853722, 0.039308786392211914, 0.0546901635825634, 0.002672462956979871, 0.09054677188396454, 0.0387197844684124, -0.08951088786125183, 0.02410895936191082, -0.04983678460121155, -0.05071074515581131, -0.11044485121965408, 0.01171181071549654, -0.08713368326425552, 0.03268709033727646, 0.07617717236280441], [0.029630037024617195, 0.01948983035981655, -0.015517367981374264, 0.07934106886386871, 0.09212875366210938, 0.010827956721186638, 0.05033154413104057, -0.027770573273301125, -0.028179476037621498, -0.007602376863360405, 0.014596240594983101, -0.0776989683508873, -0.006575140170753002, 0.0911615639925003, 0.03408333659172058, -0.10834639519453049, -0.009764561429619789, -0.0005873746704310179, 0.08141722530126572, -0.09088245034217834, 0.024558186531066895, -0.05800388753414154, 0.028053060173988342, -0.04350681230425835, -0.049139976501464844, 0.0687861442565918, 0.03297121450304985, -0.03662050887942314, 0.009314991533756256, -0.03295077010989189, 0.006681584753096104, -0.06514744460582733, 0.019837379455566406, -0.026513516902923584, 0.09309464693069458, -0.016850579530000687, 0.033153679221868515, -0.0322125107049942, -0.04735612869262695, 0.08987276256084442, 0.010759131982922554, 0.005631563253700733, 0.09554998576641083, 0.015183426439762115, -0.024912044405937195, -0.01763862930238247, -0.009402226656675339, 0.0013743152376264334, -0.041017796844244, -0.035466037690639496, -0.024484939873218536, 0.0020660720765590668, -0.12404715269804001, -0.08437950164079666, 0.01971876621246338, -0.026567848399281502, 0.01755833812057972, -0.03344551473855972, 0.022248610854148865, -0.03197512775659561, -0.018638549372553825, 0.007512642536312342, 0.02677011489868164, -0.02793443202972412, -0.014509324915707111, 0.018739430233836174, -0.17780832946300507, -0.09983233362436295, -0.05108979344367981, 0.021190470084547997, -0.082376629114151, -0.09482487291097641, 0.05023883283138275, -0.02827560156583786, -0.10625815391540527, 0.04767545312643051, -0.011464683338999748, -0.003046032041311264, 0.0003648939309641719, -0.09692492336034775, 0.04411289840936661, -0.02984551154077053, 0.006857681088149548, -0.06586040556430817, 0.016546599566936493, -0.08120690286159515, -0.050208285450935364, 0.04007026553153992, 0.06630432605743408, 0.015279159881174564, 0.0037523144856095314, 0.015322022140026093, -0.04232721030712128, -0.0036231214180588722, -0.02246738225221634, 0.03053889237344265, -0.01116467546671629, -0.03260535001754761, 0.032284077256917953, 0.08188290894031525, 0.05568341538310051, 0.039255015552043915, 0.017559543251991272, 0.10523983836174011, 0.004779104143381119, 0.0528273805975914, -0.024414606392383575, -0.13080857694149017, -0.003928772173821926, 0.00757914874702692, 0.012774163857102394, 0.09224503487348557, -0.058397214859724045, -0.11662275344133377, 0.025855427607893944, 0.07233186811208725, 0.031277481466531754, -0.05806361138820648, 0.029437469318509102, -0.06769444048404694, 0.025585738942027092, 0.013330903835594654, -0.04166099429130554, 0.03683663532137871, 0.03766234964132309, 0.046047061681747437, -0.008669961243867874, -0.04300042614340782, -0.05092579498887062, 0.047477371990680695, -0.024909310042858124, 0.028972018510103226, -0.052027828991413116, 0.0022321916185319424, 0.00607658876106143, 0.0026348326355218887, -0.027832362800836563, -0.06314212828874588, -0.003751097247004509, 0.02191069908440113, -0.06874062865972519, 0.003605599980801344, 0.07493763417005539, -0.0800691470503807, 0.010365422815084457, -0.012976527214050293, 0.002963161328807473, -0.01264283712953329, 0.03439239412546158, 0.03981299325823784, 0.004744396544992924, -0.0053848582319915295, -0.06319288164377213, -0.05250949040055275, 0.01790441758930683, 0.05444565415382385, 0.061259880661964417, 0.0273447223007679, 0.023366419598460197, -0.01760527864098549, -0.002154241781681776, 0.009052585810422897, -0.008223319426178932, -0.04752863198518753, 0.03458719700574875, 0.056942958384752274, -0.06510632485151291, -0.0026788879185914993, 0.0013170272577553988, -0.02743547409772873, 0.033144064247608185, 0.03197566419839859, 0.03946046531200409, -0.10352926701307297, -0.02915751002728939, 0.00883554294705391, 0.06843724101781845, -0.009139278903603554, 0.01521325670182705, -0.018757738173007965, 0.027862975373864174, 0.06861872971057892, -0.01033659279346466, -0.10286413133144379, -0.037738922983407974, -0.09673688560724258, -0.0048676421865820885, -0.04649818688631058, 0.06660324335098267, -0.07786264270544052, 0.03579680249094963, 0.026544537395238876, 0.004720557946711779, -0.022622257471084595, -0.023055240511894226, 0.020190004259347916, 0.05573483556509018, 0.003814063500612974, -0.0004917674232274294, 0.07534424215555191, 0.04491980001330376, 0.001644412986934185, 0.07607335597276688, -0.067295603454113, -0.11759847402572632, -0.04151906445622444, -0.059262730181217194, 0.06894664466381073, 0.05324981361627579, 0.010554295964539051, 0.05417143926024437, 0.07470144331455231, -0.0006092875264585018, 0.07962509989738464, 0.023098614066839218, 0.01770026981830597, -0.02251635491847992, -0.002025473862886429, -0.04564531892538071, 0.010079268366098404, -0.02597760409116745, 0.07584932446479797, 0.026858249679207802, 0.02878967858850956, -0.058836910873651505, 0.01811807043850422, 0.020699480548501015, 0.025803372263908386, -0.12624427676200867, 0.05244132876396179, -0.020635351538658142, 0.0042858910746872425, -0.04338911548256874, -0.06030910089612007, 0.017347099259495735, 0.007803826592862606, -0.12808096408843994, -0.1014486700296402, -0.037016063928604126, -0.030893515795469284, -0.029488706961274147, 0.01887219399213791, -0.014029482379555702, -0.036509234458208084, 0.046944305300712585, 0.07983646541833878, 0.09638670086860657, 0.03341704234480858, -0.003809958230704069, -0.012221462093293667, -0.024261731654405594, -0.03887702152132988, -0.035472385585308075, -0.09902335703372955, -0.008727476932108402, 0.012443913146853447, -0.01800142414867878, 0.041058097034692764, -0.05721405893564224, -0.009566334076225758, -0.05720619857311249, -0.01405350398272276, 0.02332265116274357, 0.036329276859760284, -0.019249327480793, 0.04746300354599953, -0.09855616837739944, 0.004675007425248623, 0.13777028024196625, 0.05012448877096176, 0.10193406790494919, 0.024235781282186508, 0.014323694631457329, -0.0669790506362915, 0.010376812890172005, -0.034403279423713684, -0.05854862928390503, 0.0218413807451725, -0.08647704124450684, 0.07322415709495544, -0.04157140478491783, -0.004100920632481575, 0.03264329209923744, 0.029491063207387924, -0.06568458676338196, 0.06043219566345215, 0.038283705711364746, 0.04800768569111824, -0.07825515419244766, -0.01419128943234682, 0.045046500861644745, -0.026157310232520103, 0.07333467900753021, 0.006951471325010061, 0.017901385203003883, -0.010295528918504715, 0.05424486845731735, 0.04529433324933052, 0.02424035407602787, 0.07739605009555817, -0.051286883652210236, -0.04573860019445419, -0.010447433218359947, -0.04644635319709778, -0.0011276919394731522, 0.028090305626392365, -0.07473374158143997, -0.0582190565764904, 0.11461998522281647, -0.03935103118419647, -0.05063271522521973, -0.037179917097091675, -0.06583870947360992, 0.056852787733078, 0.0631013736128807, -0.0611041896045208, 0.00586680369451642, -0.04268806800246239, -0.07468349486589432, 0.06324879825115204, -0.06891775876283646, -0.011384422890841961, 0.05290178209543228, -0.029721487313508987, 0.07536400109529495, -0.034245334565639496, -0.030084360390901566, 0.05958986282348633, 0.04858671873807907, 0.003921836148947477, -0.05573708564043045, 0.02252502180635929, -0.06157901510596275, -0.08110461384057999, 0.07025735080242157, -0.014955277554690838, -0.042555373162031174, -0.027196073904633522, 0.019952816888689995, 0.08448121696710587, 0.050434425473213196, -0.02951178513467312, -0.04890763387084007, 0.06247808784246445, -0.03248121961951256, -0.08161941915750504, -0.07325796782970428, 0.019021963700652122, -0.04996122047305107, 0.028295280411839485, 0.030574822798371315, -0.029696527868509293, -0.005059120710939169, 0.04232320562005043, -0.05472787469625473, 0.020772837102413177, 0.0571088045835495, -0.08766910433769226, -0.03421945497393608, -0.07514787465333939, -0.057538364082574844, 0.05297522991895676, -0.016848165541887283, -0.014193655923008919, -0.039761777967214584, 0.09387008100748062, 0.024835903197526932, -0.11355646699666977, 0.031269676983356476, -0.015188525430858135, -0.12578502297401428, 0.0487431138753891, 0.012897493317723274, -0.013972077518701553, 0.014965984970331192, -0.0016726376488804817, -0.03953959792852402, -0.05647255480289459, -0.032582394778728485, -0.017017289996147156, -0.047787636518478394, -0.03217750042676926, -0.013913840055465698, -0.03469365835189819], [0.05879543721675873, 0.048795539885759354, -0.03950698673725128, 0.005511858966201544, 0.0373423732817173, 0.03064250946044922, -0.1303122639656067, 0.03081439808011055, -0.048639919608831406, -0.01556035503745079, -0.048163462430238724, 0.04035888612270355, 0.09673869609832764, 0.07871386408805847, 0.03224211558699608, 0.005714628845453262, 0.08262048661708832, 0.06222221255302429, 0.0296366885304451, 0.08671168237924576, 0.005032546818256378, 0.050890687853097916, -0.019518962129950523, 0.015155266039073467, 0.0035660089924931526, -0.04864177852869034, -0.0009281877428293228, 0.0048928456380963326, -0.024714287370443344, -0.0665661171078682, -0.04759974405169487, -0.021523725241422653, 0.008495926856994629, -0.01956138014793396, -0.0005035540089011192, 0.1114390417933464, -0.04310736432671547, 0.0285036638379097, 0.04548509791493416, 0.08015255630016327, -0.0358060821890831, 0.03229694440960884, -0.033139340579509735, -0.014690161682665348, 0.09055429697036743, 0.02353866584599018, 0.09168771654367447, 0.02004653960466385, -0.05619709938764572, -0.12162137776613235, -0.02571486309170723, 0.009090946987271309, -0.029341869056224823, 0.056116700172424316, -0.0058708228170871735, 0.009503611363470554, 0.003878831397742033, 0.05969633534550667, 0.0034605609253048897, 0.0212562195956707, -0.02897453121840954, -0.11638156324625015, 0.005295743700116873, 0.07582414150238037, -0.01426241546869278, 0.005598098039627075, -0.015366265550255775, 0.06898141652345657, -0.049229010939598083, -0.003403379349038005, -0.013208338990807533, 0.05439481511712074, -0.058687303215265274, -0.08995334804058075, 0.11235363781452179, -0.012380712665617466, 0.07867515832185745, 0.06339539587497711, 0.01035049557685852, -0.11047104001045227, 0.0033194744028151035, -0.02654726430773735, 0.04296502843499184, -0.0005864826962351799, 0.022775162011384964, -0.0222651157528162, -0.004017368890345097, 0.01239760871976614, 0.019392427057027817, -0.009843909181654453, -0.04313971474766731, 0.07279323041439056, -0.0018664196832105517, -0.030266445130109787, 0.002522009424865246, 0.010382981970906258, 0.03063284233212471, 0.02313270792365074, -0.03582552447915077, 0.0912596732378006, -0.03660883754491806, 0.02162490226328373, -0.10094042867422104, -0.03537537902593613, -0.027485191822052002, 0.00134779151994735, 0.020761976018548012, -0.0035594620276242495, -0.03614889085292816, -0.005742071662098169, 0.020646031945943832, -0.02206452563405037, 0.019367080181837082, -4.752050153911114e-05, 0.07449673116207123, -0.059561505913734436, 0.07947927713394165, -0.10278495401144028, -0.010784265585243702, 0.0930778831243515, 0.024135647341609, -0.03990190476179123, -0.08543871343135834, -0.03006417118012905, -0.051497410982847214, -0.06883881241083145, -0.04487893357872963, 0.03140978515148163, 0.027166875079274178, 0.04642351344227791, 0.038685958832502365, -0.04874590039253235, 0.0234733484685421, -0.041760366410017014, 0.06009666621685028, 0.0652025118470192, -0.042200617492198944, -0.025186913087964058, 0.00011099129915237427, -0.01623714342713356, -0.036899153143167496, 0.009589370340108871, 0.04821626842021942, 0.05060239136219025, -0.0021815993823111057, -0.08707264810800552, -0.02297060936689377, -0.07862555980682373, -0.004911512602120638, -0.03191337361931801, 0.018656451255083084, -0.18118543922901154, -0.09151346981525421, 0.11884891241788864, 0.02484612539410591, 0.07987495511770248, 0.00669526681303978, -0.06388670206069946, -0.015266820788383484, -0.0015581334009766579, 0.0460517480969429, -0.019383132457733154, -0.002784500829875469, -0.08052593469619751, -0.07398713380098343, -0.021361710503697395, 0.017787864431738853, -0.023042794317007065, -0.01474103145301342, 0.0774698555469513, -0.07162433117628098, 0.019536377862095833, -0.04032837599515915, 0.01314473059028387, -0.02415396086871624, 0.06765832751989365, -0.041134174913167953, 0.018229912966489792, 0.05284319072961807, -0.006143424194306135, -0.03738617151975632, 0.02310875430703163, 0.019584480673074722, -0.054602719843387604, -0.06532245129346848, 0.03748713433742523, -0.03404977172613144, -0.021703902631998062, 0.016681339591741562, -0.026746338233351707, 0.023390619084239006, -0.06824124604463577, 0.06221434846520424, -0.11974947154521942, 0.06281354278326035, 0.0488089844584465, 0.06681524962186813, 0.033166758716106415, 0.055143918842077255, -0.028386292979121208, -0.0902734026312828, -0.018148576840758324, -0.005369929596781731, 0.11117290705442429, 0.04699237644672394, -0.1167188510298729, 0.05330348387360573, 0.03848208487033844, 0.007716252002865076, 0.002093920484185219, -0.08112131059169769, 0.057394884526729584, 0.004778427071869373, 0.012583925388753414, 0.034160684794187546, -0.01578664779663086, 0.05838309973478317, -2.671009860932827e-05, 0.05597013607621193, -0.032760705798864365, 0.002993084490299225, -0.06214967370033264, 0.025293320417404175, 0.07893159240484238, 0.0604412816464901, 0.01107447687536478, -0.07009377330541611, 0.09042955189943314, 0.0018347785808146, 0.021463213488459587, -0.08378464728593826, -0.04101439565420151, -0.02236570231616497, 0.011913811787962914, 0.01951046846807003, 0.09102051705121994, -0.05165952816605568, 0.03416312485933304, 0.08672338724136353, -0.02075107768177986, -0.0010178941302001476, -0.02795891836285591, -0.014547009021043777, -0.08213582634925842, -0.06581635773181915, -0.012153362855315208, 0.07009202986955643, -0.029131602495908737, 0.04054143652319908, 0.03216651827096939, -0.07590928673744202, 0.03874363750219345, 0.009199118241667747, -0.015553571283817291, 0.013019081205129623, -0.0008830792503431439, -0.02827722765505314, 0.025389818474650383, -0.03873417526483536, 0.0375996008515358, 0.009516654536128044, -0.04296658933162689, -0.055724553763866425, 0.07865346223115921, -0.03365765139460564, 0.04024675115942955, 0.03486020863056183, 0.01377895101904869, 0.06807243824005127, 0.01214762032032013, -0.07174428552389145, 0.04549184441566467, -0.013802355155348778, 0.046126581728458405, 0.04424355551600456, -0.060304198414087296, -0.028599075973033905, 0.03606756776571274, -0.008738120086491108, 0.02460736595094204, -0.09884148091077805, -0.0008260610047727823, -0.05053846165537834, 0.08725003898143768, 0.05487821251153946, -0.015956098213791847, -0.008649577386677265, 0.06642710417509079, 0.04474760591983795, -0.022706573829054832, 0.07062610983848572, -0.050488460808992386, 0.017259329557418823, 0.0010611453326418996, -0.004859826061874628, 0.023182345554232597, -0.0747879296541214, 0.10033231228590012, -0.03413946181535721, 0.03725935518741608, 0.021748263388872147, -0.02461785078048706, 0.04032278433442116, -0.030539201572537422, 0.04680532589554787, -0.027532275766134262, 0.06844817847013474, -0.06326574832201004, 0.05875125899910927, -0.00617776857689023, 0.11353988945484161, -0.05081401392817497, -0.010377081111073494, -0.01508310902863741, 0.0018120012246072292, -0.03565438836812973, -0.005406300071626902, -0.022009864449501038, 0.009614682756364346, 0.021755563095211983, 0.07569055259227753, 0.032947055995464325, -0.0717705562710762, 0.07428990304470062, -0.10033141076564789, 0.09973199665546417, 0.011332297697663307, -0.0737244188785553, 0.017033696174621582, 0.008535602129995823, -0.041140321642160416, -0.00031180819496512413, 0.011645092628896236, -0.07621823996305466, -0.08780980855226517, 0.026655221357941628, -0.07082637399435043, -0.07299324125051498, -0.0551968477666378, 0.005264240317046642, -0.003427954623475671, 0.00610714266076684, -0.06431330740451813, -0.04026777297258377, 0.018048077821731567, -0.020861808210611343, 0.04216568171977997, 0.02052794024348259, -0.05808310583233833, -0.02067696675658226, -0.12269880622625351, -0.040603674948215485, 0.1055719256401062, 0.08550138026475906, 0.047119494527578354, -0.05116741731762886, 0.036862194538116455, -0.011477306485176086, 0.020968452095985413, 0.02849036082625389, -0.04353298246860504, 0.025551535189151764, -0.0891689881682396, 0.07862348109483719, 0.0530337318778038, 0.057422809302806854, 0.05043501779437065, -0.07717892527580261, -0.0011817733757197857, 0.10417439043521881, 0.016333233565092087, 0.04340248554944992, 0.02754220739006996, -0.017893463373184204, -0.02909957244992256, -0.05280623957514763, 0.02946367859840393, -0.058304499834775925, 0.05155099555850029, -0.026953401044011116, -0.02107839658856392, 0.01988002471625805, -0.04224417731165886, -0.009644890204071999], [-0.05399766564369202, -0.0355711467564106, -0.002566613256931305, -0.011406464502215385, 0.022965803742408752, 0.01200456079095602, -0.012671828269958496, 0.03717581182718277, 0.08461339771747589, -0.03987327218055725, -0.060948655009269714, -0.031402330845594406, 0.05584999546408653, 0.0349818579852581, -0.05756780505180359, -0.025211025029420853, -0.03631800785660744, -0.015241714194417, 0.02281600423157215, -0.06494570523500443, -0.07264919579029083, 0.06017574295401573, 0.004334891680628061, 0.00011135544627904892, 0.025634940713644028, -0.02065761759877205, 0.02029014565050602, 0.04121023789048195, 0.0770365446805954, 0.033485595136880875, 0.09232132881879807, -0.03567345067858696, -0.006014607381075621, 0.05211563780903816, -0.04962177947163582, 0.05666356533765793, 0.0225280299782753, 0.061486564576625824, -0.040696606040000916, 0.08932463824748993, -0.054800573736429214, 0.012458529323339462, -0.02464231476187706, 0.04241272062063217, 0.06811223179101944, 0.04300108551979065, -0.025729671120643616, 0.054508961737155914, 0.0065950071439146996, 0.05774785205721855, 0.04917193204164505, 0.006651764735579491, 0.020621437579393387, 0.03997865319252014, -0.05040875822305679, -0.0002510200720280409, -0.01742127723991871, -0.1327311396598816, 0.02329217828810215, 0.012769111432135105, -0.0503360889852047, 0.05339108407497406, -0.06105807423591614, 0.04167366027832031, 0.04198716953396797, -0.030800219625234604, -0.05292680487036705, 0.0666293054819107, 0.0752798393368721, 0.020220456644892693, -0.03478550165891647, 0.08058230578899384, 0.040442321449518204, -0.001328313141129911, 0.01645837351679802, 0.019587339833378792, -0.005846218205988407, 0.0046422951854765415, 0.003918706905096769, 0.02508530765771866, -0.004195210058242083, 0.05947551131248474, 0.07886024564504623, -0.0014465679414570332, 0.05294431000947952, 0.12831273674964905, 0.022638659924268723, 0.03708891198039055, 0.02429996244609356, -0.06556689739227295, 0.06879149377346039, 0.0252420324832201, 0.02260078489780426, 0.031824033707380295, 0.06756006181240082, -0.025771163403987885, 0.0241389200091362, -0.08773130178451538, -0.009658604860305786, 0.09841805696487427, -0.012560117058455944, 0.10109377652406693, 0.0008263734634965658, -0.04702243208885193, 0.05194493383169174, -0.015236828476190567, -0.033665262162685394, 0.01252857968211174, 0.027266405522823334, -0.025411006063222885, 0.002359667094424367, 0.08650904148817062, -0.05602285638451576, -0.09161271899938583, 0.010860035195946693, -0.016013963147997856, -0.019170455634593964, -0.012765876948833466, -0.029326703399419785, 0.003100440837442875, 0.03741716593503952, 0.07893417030572891, -0.0957542210817337, -0.0025131083093583584, 0.009940234944224358, -0.037354130297899246, -0.14410807192325592, -0.04758388176560402, -0.0319342277944088, -0.01840856857597828, 0.048784881830215454, 0.03935965895652771, 0.08452028036117554, 0.11647340655326843, -0.015828076750040054, 0.12856511771678925, 0.022607481107115746, -0.058448661118745804, -0.06325089186429977, 0.01239534467458725, -0.04261421412229538, -0.010320397093892097, -0.010566904209554195, 0.028907762840390205, 0.08912823349237442, 0.04651036858558655, 0.0823713019490242, -0.03594456613063812, -0.0827082097530365, 0.04347362369298935, 0.05084429681301117, 0.012516392394900322, -0.03002181649208069, -0.009883133694529533, 0.006584459915757179, 0.10822504758834839, 0.10761053115129471, 0.014611197635531425, -0.0795857235789299, 0.05531638115644455, 0.06304321438074112, -0.024026349186897278, -0.09657493233680725, 0.045660682022571564, -0.038019243627786636, -0.037787631154060364, 0.03480570763349533, 0.0218693558126688, -0.07651157677173615, 0.06947249174118042, 0.04710996150970459, 0.0157303623855114, -0.044782135635614395, -0.06867606937885284, 0.019587306305766106, -0.024102656170725822, -0.02916017547249794, -0.023664483800530434, -0.06270431727170944, -0.015387004241347313, -0.058231696486473083, 0.16405633091926575, 0.07127446681261063, -0.08163966238498688, 0.00958334282040596, -0.01882600598037243, 0.014284184202551842, -0.09163621068000793, 0.10578662902116776, -0.05694238096475601, -0.0047230529598891735, 0.06536398082971573, -0.024569591507315636, -0.013931568711996078, 0.10693413019180298, -0.046032898128032684, 0.0159471333026886, 0.021134352311491966, -0.03276793658733368, -0.07333197444677353, 0.006213287822902203, -0.020685318857431412, 0.03903811797499657, -0.044500019401311874, 0.016997097060084343, 0.01964898593723774, -0.004179077688604593, -0.06423000246286392, -0.011541689746081829, 0.03493281826376915, 0.03298444300889969, 0.03901279345154762, 0.0441683828830719, -0.035382162779569626, 0.026905618607997894, 0.03228053078055382, 0.04856996610760689, -0.029959067702293396, -0.02529657818377018, 0.06804189085960388, 0.04632154107093811, -0.0034524002112448215, -0.052547477185726166, 0.08480027318000793, 0.03596966341137886, -0.009710833430290222, 0.07624927163124084, -0.024608375504612923, 0.04465537518262863, 0.004345891065895557, 0.041511956602334976, -0.01580974832177162, 0.0053717908449471, -0.03596164286136627, -0.030155764892697334, 0.00856866966933012, -0.017555369064211845, -0.02594795823097229, 0.060133401304483414, -0.06098547950387001, -0.0008096201927401125, -0.06328748911619186, 0.06124090775847435, -0.023417271673679352, -0.0933033749461174, 0.029465610161423683, -0.041787952184677124, -0.10725324600934982, 0.06629391014575958, -0.0008858675719238818, 0.058727193623781204, -0.020757704973220825, 0.034455038607120514, 0.04321351647377014, -0.03657357394695282, -0.016664840281009674, 0.0032344607170671225, 0.07756819576025009, 0.0154209453612566, 0.04327710345387459, -0.0026708252262324095, 0.04285283386707306, 0.05906666815280914, -0.0938541367650032, 0.005772382952272892, -0.045251939445734024, 0.028569255024194717, 0.04406821355223656, 0.017604343593120575, 0.010182601399719715, 0.12722305953502655, -0.029126597568392754, 0.08491042256355286, 0.06511813402175903, -0.008105690591037273, -0.019874930381774902, 0.04361306503415108, 0.04826590046286583, 0.04460142180323601, 0.004571821540594101, -0.0017858543433248997, -0.0010371210519224405, 0.06487641483545303, 0.031218498945236206, 0.0498846061527729, 0.037479594349861145, -0.004562536720186472, 0.0622483491897583, -0.007689703721553087, -0.047693703323602676, -0.014619212597608566, 0.024780848994851112, -0.07654955238103867, 0.0007346736383624375, 0.07111179083585739, -0.03401023894548416, 0.0036291901487857103, 0.015552359633147717, 0.007114644628018141, 0.013907017186284065, -0.0070902337320148945, -0.0012933542020618916, -0.07823983579874039, 0.08558487892150879, -0.011728551238775253, -0.051798153668642044, -0.06820105016231537, 0.08156411349773407, -0.09863214939832687, -0.07613976299762726, 0.006426538340747356, 0.06135813146829605, 0.05937021225690842, -0.07446455955505371, 0.03806617110967636, -0.004034245386719704, 0.03413066267967224, -0.0878550335764885, 0.049529239535331726, -0.03146757557988167, 0.06421861052513123, -0.125355064868927, 0.03636760264635086, -0.0826946273446083, -0.058245375752449036, -0.045434530824422836, -0.043890368193387985, 0.04308786988258362, -0.004422134719789028, 0.07080044597387314, 0.04570429027080536, 0.03917853906750679, -0.036888882517814636, -0.0037032251711934805, -0.10364221781492233, 0.005925629287958145, -0.0398920401930809, -0.08700720965862274, 0.012458747252821922, -0.037569958716630936, 0.008043444715440273, -0.04570859298110008, -0.07046248763799667, -0.013329178094863892, -0.02060522511601448, 0.0011528998147696257, -0.08517284691333771, -0.01991264335811138, 0.05337395519018173, -0.025313425809144974, -0.013845833018422127, 0.031208347529172897, -0.08977938443422318, 0.06028515473008156, 0.022556647658348083, -0.03410368785262108, -0.04132232815027237, -0.00379897840321064, -0.03664781153202057, 0.024053499102592468, 0.1270209401845932, -0.056102558970451355, 0.06717750430107117, -0.018052276223897934, 0.047829706221818924, -0.006133208051323891, -0.023491568863391876, 0.03663419932126999, -0.02674117311835289, -0.007068494334816933, -0.012526489794254303, 0.017450537532567978, 0.03058825433254242, 0.02781538851559162, 0.09859734773635864, -0.003148430958390236, 0.021685756742954254, -0.031277287751436234, 0.0037284428253769875, 0.06942737847566605, -0.0680604875087738, 0.03145997226238251, 0.00980127602815628, -0.0706845223903656], [0.033261433243751526, 0.015080606564879417, -0.05797186493873596, -0.003356196451932192, -0.0191746074706316, 0.07446588575839996, 0.08172444254159927, -0.07465636730194092, 0.01718767173588276, 0.08442675322294235, 0.03616510331630707, 0.0058533549308776855, 0.014963382855057716, 0.06064582243561745, -0.008409533649682999, -0.06416527926921844, 0.0145514365285635, 0.020507637411355972, 0.009287331253290176, 0.0046297116205096245, 0.06442094594240189, -0.0398319847881794, 0.014268152415752411, -0.11445938050746918, -0.0262242890894413, -0.04682407155632973, 0.013174023479223251, 0.0673961266875267, -0.013405803591012955, 0.008251814171671867, -0.03958843648433685, -0.07472508400678635, -0.018182432278990746, -0.030412480235099792, 0.03311493992805481, -0.09745658934116364, -0.05660941079258919, 0.005412589758634567, 0.05685238540172577, -0.020179856568574905, 0.02338995598256588, -0.06772805750370026, -0.0111922025680542, 0.028450647369027138, -0.01337878592312336, 0.04472735896706581, -0.03835564851760864, -0.06405870616436005, -0.023588072508573532, 0.015013918280601501, -0.021601110696792603, -0.0032676472328603268, -0.012869725935161114, -0.006914680823683739, 0.04589877277612686, -0.04166470095515251, 0.03216659277677536, 0.10391135513782501, -0.028872050344944, -0.018297450616955757, -0.005518883001059294, -0.06181304529309273, 0.01488993875682354, -0.12246806174516678, -0.0005724439397454262, 0.025938645005226135, 0.05789678543806076, -0.0361868180334568, 0.02774096094071865, 0.05050508677959442, 0.05259343236684799, 0.005459883250296116, -0.010933625511825085, -0.028589893132448196, 0.04120292514562607, 0.01776803657412529, 0.041530437767505646, -0.03561801090836525, -0.056603312492370605, -0.02967599406838417, 0.03234262764453888, -0.025181734934449196, 0.07758599519729614, -0.053392376750707626, -0.004578572232276201, 0.033127352595329285, 0.028035404160618782, -0.04972246289253235, 0.030974630266427994, -0.04682881757616997, 0.004650823771953583, -0.027971606701612473, -0.022721445187926292, -0.002589872572571039, 0.003471367061138153, 0.02440287172794342, 0.049851931631565094, 0.005418035201728344, 0.008158968761563301, -0.01346610113978386, -0.01160309836268425, 0.015210683457553387, 0.01855655573308468, -0.0911916196346283, -0.0741257593035698, 0.03386443480849266, -0.0073147984221577644, -0.06860436499118805, -0.03198292478919029, 0.041811905801296234, 0.0030940959695726633, -0.04467858001589775, -0.030753236263990402, 0.061135388910770416, 0.09436780959367752, -0.03628752380609512, 0.02010563388466835, -0.009204168803989887, -0.08636637777090073, -0.007400840520858765, -0.04624573513865471, 0.006010351702570915, 0.02221520245075226, 0.028159281238913536, 0.01181927602738142, -0.07355302572250366, -0.04686902463436127, -0.05355444923043251, -0.04281677305698395, -0.011563867330551147, -0.08336585015058517, 0.047275908291339874, -0.06120345741510391, 0.020017243921756744, -0.06705892086029053, -0.03705131262540817, 0.026403237134218216, 0.018251903355121613, 0.04782217741012573, 0.007722319103777409, 0.027907680720090866, -0.08649185299873352, 0.034315936267375946, 0.07373759150505066, -0.03607960045337677, 0.04261258244514465, 0.12557396292686462, -0.0009602722711861134, 0.0534457266330719, 0.01636715978384018, -0.056907784193754196, -0.02517388015985489, -0.060822222381830215, 0.10566499829292297, -0.0196066964417696, 0.10536716133356094, 0.0927613228559494, -0.05999171733856201, -0.05559778958559036, 0.015037988312542439, -0.018320225179195404, -0.08304194360971451, -0.04141061753034592, 0.029742645099759102, 0.0018860000418499112, 0.027701485902071, -0.009339749813079834, 0.03676557168364525, 0.06041349843144417, 0.06426499038934708, 0.07442591339349747, -0.027356591075658798, 0.02584424987435341, -0.04165591299533844, 0.022773684933781624, -0.004992698319256306, -0.06993763893842697, 0.01691586896777153, -0.08580364286899567, -0.008329403586685658, -0.009664474055171013, 0.026480458676815033, -0.002531831618398428, 0.07035256177186966, -0.03740237280726433, -0.018844716250896454, -0.01212066039443016, 0.067835234105587, 0.02160404995083809, -0.011158167384564877, -0.052207767963409424, 0.012715719640254974, -0.038829877972602844, 0.07646884769201279, -0.019984789192676544, -0.026490651071071625, 0.051292676478624344, 0.10051190853118896, 0.01388324610888958, 0.06192991882562637, -0.02875441312789917, -0.06458365172147751, -0.012925181537866592, 0.04500797390937805, -0.05083741620182991, 0.059486813843250275, 0.1071612685918808, -0.014687791466712952, 0.07411996275186539, 0.014219172298908234, -0.041833505034446716, 0.019156374037265778, 0.11238192021846771, 0.012349765747785568, 0.03539252281188965, 0.06784411519765854, -0.022389620542526245, -0.08821506798267365, -0.08378271758556366, 0.0027541881427168846, -0.035167593508958817, -0.08941236883401871, -0.03827705234289169, 0.035023123025894165, 0.007393037434667349, 0.04400269687175751, 0.01432180218398571, -0.04860851168632507, 0.004843902308493853, -0.06171150133013725, -0.012568283826112747, -0.015205399133265018, 0.07934669405221939, 0.06017013639211655, -0.09149596095085144, 0.02571900561451912, -0.03887639939785004, -0.07642248272895813, -0.05437750741839409, 0.005383862182497978, 0.11977033317089081, -0.06184682995080948, 0.05541682243347168, -0.00886854063719511, 0.010277285240590572, -0.09599863737821579, -0.08024691790342331, 0.009353088214993477, -0.043592993170022964, -0.04353823512792587, -0.02677149325609207, 0.08308602124452591, -0.06531347334384918, -0.03718170151114464, 0.06714834272861481, -0.008097742684185505, -0.0588192492723465, -0.039333317428827286, -0.047112561762332916, -0.008557455614209175, -0.10594110190868378, -0.07472284138202667, 0.02530396170914173, 0.05669025331735611, 0.02572333812713623, 0.07558523118495941, 0.011492805555462837, 0.02859138883650303, -0.0696936845779419, -0.05888030678033829, -0.03298366442322731, -0.029580479487776756, 0.086257703602314, 0.06677128374576569, -0.01963377371430397, 0.0878906324505806, -0.010364937596023083, 0.0379825197160244, -0.05010053515434265, 0.08593203127384186, 0.0428784117102623, 0.18367426097393036, 0.062309395521879196, -0.006749166175723076, 0.0316973514854908, -0.0018247305415570736, -0.028169123455882072, 0.06841394305229187, -0.016152366995811462, 0.016996903344988823, 0.07053983211517334, 0.0007104809046722949, -0.03190082684159279, 0.0059990850277245045, -0.018380844965577126, 0.01960924081504345, -0.03275500610470772, -0.1605188250541687, 0.006316939368844032, -0.014613264240324497, 0.08406747877597809, -0.05159933120012283, -0.014253233559429646, 0.04444603994488716, -0.025925030931830406, -0.04994300752878189, 0.07001706957817078, 0.141338050365448, -0.08705266565084457, 0.0713372528553009, 0.10277895629405975, -0.07470971345901489, 0.02335621789097786, 0.09876033663749695, -0.041186992079019547, -0.025576578453183174, 0.0016110927099362016, -0.0902431458234787, -0.040410544723272324, -0.0006014745449647307, 0.027650747448205948, -0.01804453693330288, -0.017440082505345345, 0.05382908508181572, 0.016381800174713135, -0.06737147271633148, -0.043010011315345764, 0.056300800293684006, -0.03044547140598297, -0.0031894822604954243, 0.040939997881650925, -0.011025547049939632, -0.0767715573310852, -0.021083300933241844, -0.006769520230591297, 0.05895696207880974, 0.0058204736560583115, 0.001018616370856762, -0.06005372107028961, 0.0018685557879507542, 0.07498135417699814, 0.09105711430311203, 0.05181090533733368, 0.07193897664546967, -0.060941651463508606, 0.05340933799743652, -0.03449147194623947, 0.00534499017521739, -0.002765354700386524, -0.059205587953329086, 0.06036195904016495, -0.024029918015003204, -0.038786765187978745, 0.06705571711063385, -0.0694073811173439, 0.09341715276241302, -0.04696334898471832, -0.01806538924574852, 0.053603798151016235, 0.0010393263073638082, -0.034029021859169006, -0.0035051535815000534, 0.04443611949682236, 0.04624738171696663, -0.007607821375131607, 0.05845709145069122, 0.004777871072292328, -0.0024894485250115395, -8.011143654584885e-05, 0.06333780288696289, -0.057143405079841614, -0.021044764667749405, 0.04847213253378868, 0.0027512325905263424, -0.05523908883333206, 0.03384269028902054, 0.05119640752673149, -0.035572659224271774, -0.02721334993839264, -0.03717079013586044, 0.009515688754618168, -0.10306588560342789, -0.050275810062885284, -0.0156952366232872], [-0.11955788731575012, 0.07510320097208023, -0.0757344514131546, 0.023922719061374664, 0.04485674574971199, 0.07992545515298843, 0.049409009516239166, -0.06984394043684006, -0.0663595199584961, -0.0012432103976607323, -0.06063384562730789, 0.03107753023505211, 0.01008520182222128, -0.08778104186058044, -0.012102244421839714, 0.019551223143935204, -0.014179399237036705, -0.027774294838309288, -0.03495708853006363, 0.09685467183589935, -0.0044329301454126835, -0.04184667766094208, 0.050996046513319016, -0.05178608000278473, 0.04916013404726982, -0.033713068813085556, 0.03262768313288689, 0.05893910676240921, -0.0046422891318798065, 0.11474885046482086, -0.024849582463502884, -0.014104200527071953, -0.0314207524061203, -0.09853554517030716, -0.021963488310575485, -0.05487401783466339, -0.018091609701514244, 0.08883604407310486, 0.050258755683898926, 0.003122652880847454, -0.07820060849189758, 0.0615866556763649, -0.02187158167362213, -0.04456792771816254, -0.01565439999103546, -0.028415873646736145, 0.031017182394862175, 0.058453381061553955, -0.00964981596916914, -0.06070980057120323, 0.03549042344093323, -0.00034304289147257805, 0.03343139588832855, -0.018345914781093597, -0.051717836409807205, -0.06954798102378845, 0.053557343780994415, 0.10867630690336227, -0.012561285868287086, -0.028124164789915085, 0.017844079062342644, -0.028698686510324478, -0.06265466660261154, 0.04902143031358719, 0.01605827920138836, 0.05997956544160843, -0.09202245622873306, 0.03901315852999687, 0.008454970084130764, -0.015546946786344051, -0.12631861865520477, -0.06464961916208267, -0.015224477276206017, -0.07788495719432831, -0.018027298152446747, 0.050618793815374374, 0.002072472358122468, -0.060070451349020004, 0.005029688589274883, 0.08048758655786514, -0.02843029983341694, 0.09093721210956573, -0.0511908233165741, -0.07001592218875885, -0.017581645399332047, -0.08223087340593338, -0.043324366211891174, -0.062492627650499344, -0.016792895272374153, -0.040799014270305634, -0.06139826029539108, -0.028642989695072174, 0.01689191535115242, -0.002652933821082115, 0.03249351680278778, -0.0009017502889037132, 0.016153108328580856, -0.07634453475475311, -0.001832310575991869, 0.05034245550632477, 0.09321337193250656, -0.07654479891061783, 0.022067314013838768, 0.035536471754312515, 0.021061476320028305, -0.012516612187027931, -0.02513306215405464, 0.05265805125236511, -0.09612195193767548, -0.008800200186669827, 0.048651352524757385, 0.06717409938573837, 0.01199270784854889, -0.04623527452349663, 0.021509435027837753, 0.09980778396129608, 0.05435613915324211, -0.030925244092941284, 0.009490215219557285, 0.035807542502880096, -0.05821898207068443, -0.06397972255945206, -0.010327713564038277, 0.019585300236940384, 0.09206701815128326, -0.019149914383888245, -0.08422663807868958, 0.04070860892534256, 0.006842432543635368, -0.10356099158525467, 0.10866005718708038, 0.028514070436358452, 0.05728055164217949, -0.05840263515710831, 0.00024812109768390656, 0.007223821710795164, -0.004048290196806192, 0.01237225066870451, 0.07632424682378769, 0.04321843385696411, 0.08361735194921494, -0.027572181075811386, 0.045846305787563324, -0.012214278802275658, 0.05715411156415939, 0.0015598000027239323, -0.004686812870204449, -0.04328646510839462, 0.01816011220216751, 0.010332806967198849, 0.04303939640522003, 0.008563917130231857, 0.02201944962143898, -0.038012806326150894, 0.03491175174713135, -0.007273310795426369, -0.006185069680213928, -0.0988093838095665, -0.01990138553082943, 0.07309867441654205, -0.025048524141311646, 0.02266276814043522, 0.009040050208568573, -0.01578296348452568, -0.03172443062067032, 0.03904088959097862, -0.038710854947566986, 0.002650789450854063, -0.0702827051281929, 0.05642298609018326, 0.012998279184103012, 0.031223071739077568, 0.02171052061021328, 0.03741894289851189, -0.06925347447395325, -0.04434780776500702, 0.050965115427970886, -0.05509490519762039, -0.0106160594150424, 0.015055816620588303, 0.04133712500333786, 0.0038580859545618296, -0.012192852795124054, 0.0014682139735668898, 0.01770853064954281, -0.012334844097495079, 0.02249743416905403, -0.06566762924194336, -0.05287526547908783, -0.07669179141521454, -0.02359381504356861, 0.038616783916950226, 0.020650088787078857, -0.02059861645102501, 0.03333890810608864, 0.02168506570160389, -0.06043875217437744, -0.025745639577507973, -0.006919666193425655, -0.023438528180122375, 0.040424756705760956, -0.04794222488999367, 0.007744733244180679, -0.04361614212393761, 0.06258568167686462, 0.0036118747666478157, 0.04215361550450325, -0.01614817976951599, -0.11651387065649033, 0.07000791281461716, 0.05449793115258217, 0.07281447947025299, -0.014907799661159515, -0.09000352025032043, -0.04170909523963928, 0.07474871724843979, -0.017715342342853546, 0.03734716400504112, 0.029094183817505836, -0.06082483381032944, 0.012604827992618084, 0.007923764176666737, -0.06611243635416031, 0.0005595898255705833, 0.12901900708675385, 0.008586958050727844, -0.06914893537759781, 0.011489796452224255, -0.032215677201747894, -0.03196391463279724, 0.02281193993985653, 0.053809478878974915, 0.0304697398096323, 0.01867387816309929, 0.04854513704776764, -0.0170893594622612, 0.011586982756853104, -0.04356815665960312, -0.05840139836072922, 0.03201683983206749, -0.10398264229297638, 0.045360781252384186, -0.0258314348757267, 0.06469351798295975, 0.03548751398921013, -0.04180898517370224, -0.011200211942195892, 0.16941699385643005, 0.12152791023254395, -0.0015944386832416058, -0.0765032172203064, 0.011654871515929699, -0.0477881021797657, -0.016798855736851692, 0.11460471153259277, -0.014232857152819633, 0.07097890228033066, -0.005278664641082287, -0.002313419710844755, 0.07247287780046463, 0.04354152828454971, 0.0497426837682724, -0.018903208896517754, -0.014413081109523773, -0.0038168570026755333, 0.07346206903457642, -0.011174604296684265, -0.03613629564642906, 0.11056071519851685, 0.0521504208445549, -0.017792165279388428, -0.008360225707292557, -0.03524821251630783, 0.057144585996866226, 0.03932015970349312, 0.06869352608919144, -0.025350220501422882, -0.017118947580456734, 0.009542572312057018, -0.018948538228869438, 0.050242386758327484, 0.11786983907222748, 0.05289212614297867, 0.01945541985332966, 0.03631925955414772, -0.03958630561828613, 0.0384555347263813, 0.015534165315330029, 0.0036912511568516493, -0.04975445568561554, 0.003407379612326622, -0.07937683910131454, 0.029926709830760956, 0.04621502012014389, 0.06050422042608261, -0.04606865346431732, -0.008303109556436539, -0.08948739618062973, 0.0015920484438538551, -0.1414148509502411, 0.031289003789424896, -0.009287422522902489, -0.014240988530218601, 0.06394684314727783, 0.025299668312072754, 0.0025885049253702164, 0.06880295276641846, 0.010301167145371437, -0.0397079698741436, -0.02484387904405594, -0.01693320833146572, -0.0010840725153684616, 0.00889560766518116, -0.047893404960632324, 0.08672255277633667, -0.04085785150527954, 0.12919998168945312, 0.020167991518974304, -0.017282241955399513, -0.07778158783912659, -0.003175094723701477, 0.06338557600975037, 0.014368095435202122, -0.06306219100952148, 0.027152391150593758, -0.02076045423746109, 0.0347912460565567, 0.04828828573226929, -0.004935193806886673, 0.009525565430521965, -0.09073857218027115, -0.00508931465446949, 0.08346807211637497, 0.06310483813285828, -0.009279701858758926, 0.00636096578091383, -0.023740578442811966, -0.06652925908565521, 0.021222557872533798, 0.005475455895066261, 0.10614052414894104, 0.04323245584964752, 0.028593556955456734, 0.08237959444522858, -0.05515848472714424, -0.011323017068207264, 0.05540059506893158, 0.021781880408525467, 0.010988432914018631, -0.07524675130844116, 0.009051337838172913, 0.013887176290154457, 0.012936029583215714, 0.002422063611447811, -0.0035134521313011646, -0.08682163059711456, 0.06537681072950363, 0.015622714534401894, -0.02034880220890045, 0.003329649567604065, -0.05005922168493271, -0.02161436341702938, 0.015005363151431084, 0.06010723486542702, 0.0014606009935960174, -0.15292103588581085, 0.05335506051778793, -0.06977955996990204, -0.008000829257071018, -0.015578225255012512, 0.03927920386195183, 0.007721915375441313, 0.011021848767995834, 0.03207392618060112, 0.021572332829236984, -0.022233914583921432, 0.0623185858130455, 0.009090825915336609, -0.12483382970094681, 0.0736875981092453, -0.020211512222886086, -0.04897153377532959, -0.0013072453439235687, 0.03441774845123291], [0.020930524915456772, 0.11863646656274796, -0.09731617569923401, 0.034527525305747986, -0.04189721867442131, 0.029339861124753952, 0.005721474066376686, 0.1085769459605217, -0.006218241527676582, -0.049747586250305176, -0.0435265451669693, 0.02509094960987568, -0.027881719172000885, 0.08913640677928925, -0.03125332295894623, 0.07779835909605026, -0.016472553834319115, -0.028678830713033676, 0.06782028824090958, 0.020266776904463768, 0.04401443898677826, 0.029641877859830856, 0.0132945841178298, 0.016482260078191757, 0.01065591350197792, 0.03889606148004532, 0.03954272344708443, -0.08243662118911743, 0.1400877833366394, 0.0019403945188969374, -0.03231475502252579, -0.06731101870536804, -0.06813499331474304, -0.05446000024676323, -0.03194436803460121, -0.010337886400520802, 0.09951335936784744, 0.0785134881734848, 0.06850463151931763, 0.011322335340082645, 0.04686538875102997, 0.022208869457244873, 0.054250568151474, 0.05245433747768402, -0.011909976601600647, 0.008329066447913647, 0.08966457843780518, -0.049819886684417725, -0.015902873128652573, 0.02209528349339962, -0.011774281971156597, -0.006562351249158382, 0.015760652720928192, 0.08714137226343155, 0.04164615273475647, 0.015577546320855618, 0.005910877138376236, -0.041722267866134644, 0.018361996859312057, -0.00730091379955411, -0.09196227788925171, -0.029064783826470375, -0.047265488654375076, -0.021056057885289192, -0.07829082012176514, -0.03798634186387062, 0.005106735974550247, 0.032599084079265594, -0.014365451410412788, 0.06455250084400177, -0.01908339373767376, -0.04437872767448425, -0.06568937003612518, 0.05463224649429321, -0.08095533400774002, 0.010550905019044876, 0.034802183508872986, -0.03938798978924751, -0.09579811245203018, 0.05957953259348869, -0.018003936856985092, -0.04140929877758026, -0.107659250497818, 0.042878516018390656, -0.028819149360060692, 0.0064918119460344315, -0.07548882812261581, -0.06731098145246506, -0.03130370005965233, 0.013375582173466682, 0.019760482013225555, -0.026599526405334473, 0.0032919447403401136, -0.03795301169157028, 0.03419195115566254, -0.01584000140428543, 0.059455063194036484, -0.07489672303199768, -0.04567614570260048, -0.0815790444612503, 0.0344429686665535, 0.05936286970973015, 0.07462333887815475, 0.0058882893063127995, 0.01099539827555418, 0.04898780211806297, -0.12540240585803986, -0.08244836330413818, 0.07451241463422775, -0.059819262474775314, 0.042545195668935776, 0.0005676402943208814, -0.03888456150889397, 0.0006167551036924124, -0.15117071568965912, -0.031964417546987534, -0.06201464310288429, -0.09252619743347168, 0.0365687757730484, -0.012980364263057709, -0.0782669186592102, -0.00016533304005861282, 0.06695955991744995, 0.02835245057940483, 0.012206303887069225, -0.07675077021121979, 0.07817579060792923, -0.00907178409397602, -0.03725801780819893, 0.04643626883625984, -0.0014735311269760132, 0.04636557400226593, 0.05728187412023544, 0.05820150300860405, 0.022901536896824837, 0.0034393826499581337, 0.006977305747568607, -0.012564062140882015, -0.0046363635919988155, 0.04674828052520752, -0.010383042506873608, -0.009525001049041748, -0.03628183528780937, -0.01012838538736105, -0.065384142100811, 0.026087772101163864, -0.050323355942964554, 0.08655355870723724, -0.03950144350528717, 0.07607616484165192, -0.09965313971042633, 0.05188273638486862, 0.05240323394536972, 0.033133529126644135, 0.015184501186013222, -0.027557004243135452, -0.009730086661875248, 0.02079375647008419, -0.023266028612852097, -0.004011416807770729, 0.0673174262046814, 0.042833112180233, -0.0027830321341753006, -0.05316271260380745, -0.010775987058877945, 0.058946914970874786, 0.053633153438568115, -0.05380776524543762, -0.028938595205545425, 0.050083622336387634, -0.00827301200479269, -0.0524703674018383, -0.013617951422929764, 0.13025210797786713, 0.020556019619107246, -0.047369711101055145, -0.0215580053627491, 0.031162910163402557, 0.03696715459227562, -0.04621502384543419, -0.03880102559924126, -0.02898576855659485, -0.004038265906274319, -0.018041934818029404, -0.037291593849658966, 0.003634750610217452, 0.007721180561929941, -0.08884559571743011, -0.011723145842552185, -0.1128324419260025, 0.018902938812971115, -0.013177629560232162, 0.03696828335523605, 0.05018385499715805, -0.04138648509979248, -0.055705636739730835, 0.032455168664455414, 0.00893695093691349, -0.09365467727184296, 0.07745155692100525, -0.08681853115558624, -0.010242881253361702, 0.08017781376838684, 0.025581058114767075, -0.006449582055211067, -0.029381567612290382, -0.08386851102113724, 0.10949701815843582, -0.04830729216337204, 0.05254653841257095, 0.0011266596848145127, 0.05713127553462982, 0.056389495730400085, 0.008925646543502808, -0.012430164963006973, 0.03544986620545387, 0.042559754103422165, 0.017402583733201027, 0.008576633408665657, 0.0047678351402282715, 0.042906757444143295, 0.012872802093625069, 0.00354168564081192, 0.014087722636759281, 0.08028800785541534, 0.02675420045852661, -0.09631900489330292, -0.062013037502765656, -0.012667852453887463, 0.053192876279354095, -0.012620445340871811, 0.03557166829705238, -0.08225908875465393, -0.04293490946292877, 0.09705245494842529, 0.08612249046564102, -0.008298169821500778, -0.013049481436610222, -0.06448440998792648, 0.015434660948812962, -0.0008118823170661926, -0.039030976593494415, -0.08165957778692245, -0.0037897340953350067, 0.03480816259980202, -0.011638663709163666, -0.025926832109689713, -0.029429396614432335, 0.023907363414764404, 0.10451493412256241, -0.005524702835828066, -0.02716790698468685, 0.008288965560495853, -0.039670560508966446, -0.10133570432662964, -0.05308010056614876, -0.045929599553346634, 0.033715471625328064, 0.008687003515660763, 0.01188749261200428, -0.019100386649370193, -0.03948625922203064, 0.07933061569929123, 0.05815283954143524, 0.04867146909236908, -0.03892652690410614, 0.01706675998866558, -0.030175715684890747, 0.015895379707217216, -0.11317383497953415, 0.012127190828323364, 0.07925564050674438, -0.0006223889067769051, 0.05567639321088791, -0.04058404639363289, -0.0529559925198555, -0.034218285232782364, 0.006962994113564491, -0.02896071970462799, -0.05760104954242706, 0.0428360253572464, -0.01781371235847473, -0.021786702796816826, 0.009923990815877914, 0.0944584310054779, -0.0691845640540123, -0.004421023651957512, -0.0762203112244606, 0.005822009406983852, 0.048533905297517776, 0.06234502047300339, 0.06503146141767502, 0.02402927540242672, 0.03442009910941124, -0.04658586531877518, -0.014945526607334614, -0.04717429727315903, 0.003341353964060545, -0.00025041960179805756, 0.01267219614237547, 0.03713711351156235, -0.06618363410234451, 0.07214311510324478, 0.07744292169809341, -0.047378700226545334, 0.07634004205465317, 0.06806392222642899, 0.020393788814544678, 0.008722840808331966, -0.07092854380607605, 0.03518014773726463, 0.029039712622761726, 0.06655911356210709, 0.04716417193412781, 0.04013671353459358, 0.04739250987768173, -0.03263051062822342, -0.046641722321510315, -0.011417359113693237, -0.05075488239526749, -0.0015411116182804108, -0.07595732063055038, 0.019408542662858963, 0.07342012226581573, 0.015458944253623486, -0.039712175726890564, 6.87967985868454e-06, 0.09269768744707108, -0.030969444662332535, -0.005200015846639872, -0.018911823630332947, -0.05537738651037216, 0.026231108233332634, 0.012022610753774643, 0.010488713160157204, 0.03147054463624954, 0.09282837808132172, -0.06831994652748108, -0.014327515847980976, -0.04942691698670387, 0.030653227120637894, -0.06925064325332642, -0.005372488871216774, 0.10011298954486847, 0.013079051859676838, 0.11628863215446472, 0.017438815906643867, 0.01094653457403183, 0.049632348120212555, -0.01709192432463169, -0.014896395616233349, 0.01826661452651024, 0.024579256772994995, 0.06770025193691254, 0.05295761674642563, 0.06457583606243134, 0.06263452023267746, -0.00811395887285471, 0.07180603593587875, 0.006329246796667576, -0.00891127623617649, -0.037660785019397736, -0.1251702606678009, 0.015069565735757351, 0.055498696863651276, 0.1108546108007431, -0.014950741082429886, 0.08722405880689621, 0.0348956324160099, 0.007277260068804026, -0.01591314747929573, -0.055261723697185516, -0.035398829728364944, 0.03978054225444794, 0.0035708663053810596, 0.017353789880871773, 0.0405358262360096, 0.011611961759626865, -0.06726321578025818, 0.009205561131238937, 0.07437460124492645, 0.09620693325996399, 0.02375073730945587, 0.03138517588376999], [0.12472295761108398, -0.07739298045635223, -0.05244963616132736, -0.03797850012779236, -0.021356800571084023, 0.0518827959895134, -0.0502360574901104, -0.06929280608892441, 0.03547953814268112, -0.043278250843286514, -0.04480016231536865, 0.03360334411263466, -0.0711517333984375, 0.0024805814027786255, 0.046566881239414215, -0.04371253401041031, -0.002563565969467163, 0.011840966530144215, 0.03334851562976837, -0.030367575585842133, -0.011298539116978645, -0.01010829210281372, 0.027879050001502037, -0.025410164147615433, 0.04652058705687523, -0.04353207349777222, 0.011501958593726158, -0.0014813896268606186, -0.04511859267950058, 0.040268659591674805, -0.06263917684555054, 0.09624983370304108, -0.061075612902641296, -0.030676838010549545, -0.02220776677131653, 0.06791108101606369, 0.06593167781829834, -0.06792233884334564, -0.007570165209472179, 0.0752185806632042, 0.05656541883945465, 0.042449429631233215, 0.03590473532676697, -0.02739611081779003, 0.0476992093026638, -0.12934847176074982, 0.023673992604017258, 0.04000324010848999, 0.057306673377752304, -0.011252702213823795, -0.03775307536125183, 0.015880536288022995, 0.012395293451845646, -0.04222521930932999, 0.037505414336919785, 0.06803424656391144, 0.024438917636871338, -0.005999601446092129, 0.008882341906428337, -0.04532618075609207, 0.05000115931034088, 0.029913827776908875, -0.13039551675319672, -0.10329698771238327, 0.04749143868684769, -0.0427420511841774, -0.013327516615390778, -0.07284380495548248, 0.00989201944321394, 0.0875081717967987, -0.11324039846658707, -0.006263302639126778, 0.033265162259340286, -0.08587402105331421, -0.013427745550870895, -0.05327470228075981, -0.04272846132516861, 0.04029439389705658, -0.08277900516986847, -0.08613420277833939, -0.0350944884121418, 0.050264257937669754, -0.024566911160945892, -0.06432552635669708, -0.07013809680938721, -0.02284560352563858, 0.09032385796308517, -0.039772726595401764, 0.009578565135598183, 0.03989729285240173, 0.0030049551278352737, 0.04051726683974266, 0.006164710037410259, -0.015041684731841087, -0.010406911373138428, 0.006216776557266712, 0.02561192400753498, 0.11621393263339996, -0.08221456408500671, 0.021186837926506996, 0.054256197065114975, 0.022704698145389557, -0.040850892663002014, -0.015536380931735039, 0.002859128173440695, 0.002935403259471059, -0.012911559082567692, -0.02188444882631302, -0.005567291751503944, 0.007899636402726173, 0.007495133671909571, 0.027760744094848633, -0.02967161498963833, -0.013585932552814484, -0.017638059332966805, 0.013612212613224983, 0.031720444560050964, -0.04124987870454788, 0.03983713686466217, -0.08348450064659119, -0.08558530360460281, -0.04678207263350487, 0.060233648866415024, -0.017079485580325127, 0.0354757159948349, 0.01195447240024805, -0.09916705638170242, 0.054632700979709625, 0.04286036267876625, 0.03852382302284241, -0.01581912487745285, 0.05616191029548645, 0.03088332898914814, 0.02903110347688198, 0.004293989390134811, -0.013023783452808857, 0.11770406365394592, -0.06018621101975441, 0.07418391108512878, 0.027414673939347267, -0.12634062767028809, -0.02237384207546711, 0.0073774876073002815, 0.030311331152915955, 0.010849257931113243, 0.016229920089244843, 0.01786232553422451, 0.037548452615737915, 0.033890850841999054, -0.06075621023774147, 0.055221594870090485, 0.04162170737981796, 0.0017684362828731537, 0.02605319395661354, 0.06538116186857224, -0.02852006070315838, 0.04198423773050308, 0.054084260016679764, 0.009102454409003258, -0.006636776030063629, 0.006066361907869577, -0.06533502787351608, 0.032579343765974045, -0.07035134732723236, 0.09401959925889969, 0.0056736525148153305, -0.037718527019023895, -0.09272835403680801, -0.06256518512964249, 0.008670616894960403, 0.10639750212430954, -0.0634092316031456, 0.06438131630420685, 0.05481252074241638, 0.048493266105651855, -0.10573846101760864, -0.013347895815968513, 0.11379410326480865, 0.028412416577339172, -0.0662231519818306, -0.0408964604139328, 0.06622745841741562, -0.05961611494421959, 0.052434708923101425, 0.055431950837373734, 0.0433725044131279, 0.06636423617601395, -0.0804671198129654, 0.029855510219931602, 0.11594033986330032, 0.05299407243728638, 0.009356798604130745, -0.10761948674917221, 0.05556219443678856, 0.004141610115766525, 0.012292051687836647, -0.004608591552823782, -0.01640993356704712, 0.023647043853998184, 0.009530959650874138, -0.01074063591659069, -0.02815352752804756, 0.005509615875780582, -0.011711121536791325, 0.014122705906629562, 0.003598886076360941, 0.04840172827243805, 0.051053643226623535, 0.018091142177581787, -0.06145063042640686, 0.07318658381700516, -0.006832321174442768, -0.09663140773773193, 0.09184249490499496, 0.04500269889831543, -0.0046219248324632645, -0.002510289428755641, -0.030097471550107002, -0.03965907543897629, 0.0517851784825325, 0.061777450144290924, 0.02821965329349041, -0.041344985365867615, -0.024341626092791557, -0.06078719347715378, 0.05543519929051399, -0.06494954973459244, -0.059227973222732544, 0.03468327224254608, -0.019613072276115417, 0.030971942469477654, -0.026826662942767143, 0.04558712989091873, -0.047700051218271255, 0.05897602066397667, -0.02232835441827774, 0.037350594997406006, 0.0014123846776783466, 0.03241787850856781, 